{"learner":{"attributes":{"best_iteration":"99","best_score":"0.1523927748450805"},"feature_names":["Tr","Tj"],"feature_types":["float","float"],"gradient_booster":{"model":{"gbtree_model_param":{"num_parallel_tree":"1","num_trees":"100"},"iteration_indptr":[0,1,2,3,4,5,6,7,8,9,10,11,12,13,14,15,16,17,18,19,20,21,22,23,24,25,26,27,28,29,30,31,32,33,34,35,36,37,38,39,40,41,42,43,44,45,46,47,48,49,50,51,52,53,54,55,56,57,58,59,60,61,62,63,64,65,66,67,68,69,70,71,72,73,74,75,76,77,78,79,80,81,82,83,84,85,86,87,88,89,90,91,92,93,94,95,96,97,98,99,100],"tree_info":[0,0,0,0,0,0,0,0,0,0,0,0,0,0,0,0,0,0,0,0,0,0,0,0,0,0,0,0,0,0,0,0,0,0,0,0,0,0,0,0,0,0,0,0,0,0,0,0,0,0,0,0,0,0,0,0,0,0,0,0,0,0,0,0,0,0,0,0,0,0,0,0,0,0,0,0,0,0,0,0,0,0,0,0,0,0,0,0,0,0,0,0,0,0,0,0,0,0,0,0],"trees":[{"base_weights":[3.220704E-5,-1.3360101E-1,1.0648516E-1,5.8383785E-2,-2.2858803E-1,2.0310026E-2,1.6404402E-1,6.0296036E-2,-1.2923388E-3,-2.4588302E-1,-9.840813E-2,7.966441E-3,6.1093032E-2,1.9104949E-1,8.857451E-2,6.148916E-3,4.384983E-2,-2.606387E-1,-2.0447445E-1,-1.4725891E-1,-3.2279756E-2,5.2501403E-2,-1.784128E-2,3.6653306E-2,6.8471976E-2,1.1145117E-1,1.9507872E-1,1.1643352E-1,1.6759867E-2,2.0981694E-3,5.2464683E-2,-8.997931E-2,-2.6600286E-1,-1.633519E-1,-2.242979E-1,-1.3414332E-1,-1.6673746E-2,5.0873756E-3,-7.208832E-2,4.918811E-4,5.8387946E-2,-3.1455655E-2,1.1257084E-2,8.553377E-3,2.3305286E-2,8.057021E-2,5.752655E-2,1.3521043E-2,5.9804837E-3,2.1110924E-1,1.8488078E-1,9.2590444E-2,1.359824E-1,3.714773E-2,-1.8858425E-2,5.936112E-3,4.077112E-3,-1.2090271E-2,-3.6037804E-3,-2.0379378E-2,-2.6903445E-2,-1.816909E-2,-1.234709E-2,-2.4674252E-2,-1.9679638E-2,-1.4789738E-2,-1.0135317E-2,-3.4388881E-3,4.909729E-3,-9.204698E-3,-5.0044484E-3,7.384081E-4,-1.1600212E-3,8.680812E-3,4.269737E-3,-3.510103E-3,-2.191305E-3,2.6811932E-3,7.285608E-4,3.1075862E-3,1.7328085E-3,6.7117796E-3,9.006817E-3,6.1309193E-3,4.2248587E-3,1.8039351E-2,2.1497106E-2,1.53505625E-2,1.9772753E-2,1.0301119E-2,8.448577E-3,1.7141197E-2,1.046321E-2,6.0227667E-3,2.9081579E-3,-8.544209E-4,-2.8231589E-3],"categories":[],"categories_nodes":[],"categories_segments":[],"categories_sizes":[],"default_left":[0,0,0,0,0,0,0,0,0,0,0,0,0,0,0,0,0,0,0,0,0,0,0,0,0,0,0,0,0,0,0,0,0,0,0,0,0,0,0,0,0,0,0,0,0,0,0,0,0,0,0,0,0,0,0,0,0,0,0,0,0,0,0,0,0,0,0,0,0,0,0,0,0,0,0,0,0,0,0,0,0,0,0,0,0,0,0,0,0,0,0,0,0,0,0,0,0],"id":0,"left_children":[1,3,5,7,9,11,13,15,-1,17,19,21,23,25,27,-1,29,31,33,35,37,39,41,43,45,47,49,51,53,-1,55,57,59,61,63,65,-1,67,69,71,73,75,77,-1,79,81,83,-1,-1,85,87,89,91,93,95,-1,-1,-1,-1,-1,-1,-1,-1,-1,-1,-1,-1,-1,-1,-1,-1,-1,-1,-1,-1,-1,-1,-1,-1,-1,-1,-1,-1,-1,-1,-1,-1,-1,-1,-1,-1,-1,-1,-1,-1,-1,-1],"loss_changes":[9.336294E1,5.3080296E1,1.811607E1,1.3222718E-1,4.3593903E0,7.365033E-1,4.446495E0,1.5729427E-2,0E0,9.9642944E-1,7.382438E-1,1.2939508E0,5.8805704E-2,4.9525833E-1,1.156445E0,0E0,1.2098581E-2,1.1322708E0,3.3508682E-1,1.13556385E-2,1.4763239E-1,1.2641382E-1,2.828133E-1,5.0855674E-2,2.9794455E-2,9.008002E-2,2.1158218E-1,1.817751E-1,1.19068034E-1,0E0,1.4506876E-3,6.2365144E-2,1.7601776E-1,8.873558E-2,1.3970757E-1,2.2893786E-2,0E0,9.203043E-2,1.6511872E-2,3.6693248E-3,1.6173315E-1,1.6136974E-2,1.38895195E-2,0E0,2.4805255E-3,9.414971E-3,5.5004954E-3,0E0,0E0,3.1085968E-2,3.505516E-1,7.4282885E-3,2.342E-1,1.7609775E-2,5.559396E-3,0E0,0E0,0E0,0E0,0E0,0E0,0E0,0E0,0E0,0E0,0E0,0E0,0E0,0E0,0E0,0E0,0E0,0E0,0E0,0E0,0E0,0E0,0E0,0E0,0E0,0E0,0E0,0E0,0E0,0E0,0E0,0E0,0E0,0E0,0E0,0E0,0E0,0E0,0E0,0E0,0E0,0E0],"parents":[2147483647,0,0,1,1,2,2,3,3,4,4,5,5,6,6,7,7,9,9,10,10,11,11,12,12,13,13,14,14,16,16,17,17,18,18,19,19,20,20,21,21,22,22,23,23,24,24,25,25,26,26,27,27,28,28,30,30,31,31,32,32,33,33,34,34,35,35,37,37,38,38,39,39,40,40,41,41,42,42,44,44,45,45,46,46,49,49,50,50,51,51,52,52,53,53,54,54],"right_children":[2,4,6,8,10,12,14,16,-1,18,20,22,24,26,28,-1,30,32,34,36,38,40,42,44,46,48,50,52,54,-1,56,58,60,62,64,66,-1,68,70,72,74,76,78,-1,80,82,84,-1,-1,86,88,90,92,94,96,-1,-1,-1,-1,-1,-1,-1,-1,-1,-1,-1,-1,-1,-1,-1,-1,-1,-1,-1,-1,-1,-1,-1,-1,-1,-1,-1,-1,-1,-1,-1,-1,-1,-1,-1,-1,-1,-1,-1,-1,-1,-1],"split_conditions":[4.3692448E1,3.89432E1,4.7578197E1,3.8689228E1,4.1813065E1,4.6460724E1,5.3267136E1,3.823208E1,-1.2923388E-3,4.0467022E1,4.270196E1,4.547024E1,4.6638504E1,4.780677E1,5.7762413E1,6.148916E-3,3.840986E1,3.9044785E1,4.082258E1,4.227021E1,4.3108315E1,4.4124195E1,4.6105167E1,4.651152E1,4.7019463E1,4.770518E1,5.021949E1,5.4460796E1,5.9210045E1,2.0981694E-3,3.856224E1,3.901939E1,3.9171772E1,4.0720993E1,4.1305122E1,4.2041637E1,-1.6673746E-2,4.2955933E1,4.3463875E1,4.392102E1,4.453055E1,4.5927387E1,4.6206757E1,8.553377E-3,4.653692E1,4.6790886E1,4.747661E1,1.3521043E-2,5.9804837E-3,4.8111534E1,5.1387753E1,5.3444916E1,5.5781445E1,5.8117973E1,5.9514812E1,5.936112E-3,4.077112E-3,-1.2090271E-2,-3.6037804E-3,-2.0379378E-2,-2.6903445E-2,-1.816909E-2,-1.234709E-2,-2.4674252E-2,-1.9679638E-2,-1.4789738E-2,-1.0135317E-2,-3.4388881E-3,4.909729E-3,-9.204698E-3,-5.0044484E-3,7.384081E-4,-1.1600212E-3,8.680812E-3,4.269737E-3,-3.510103E-3,-2.191305E-3,2.6811932E-3,7.285608E-4,3.1075862E-3,1.7328085E-3,6.7117796E-3,9.006817E-3,6.1309193E-3,4.2248587E-3,1.8039351E-2,2.1497106E-2,1.53505625E-2,1.9772753E-2,1.0301119E-2,8.448577E-3,1.7141197E-2,1.046321E-2,6.0227667E-3,2.9081579E-3,-8.544209E-4,-2.8231589E-3],"split_indices":[1,1,1,1,1,1,1,1,0,1,1,1,1,1,1,0,1,1,1,1,1,1,1,1,1,1,1,1,1,0,1,1,1,1,1,1,0,1,1,1,1,1,1,0,1,1,1,0,0,1,1,1,1,1,1,0,0,0,0,0,0,0,0,0,0,0,0,0,0,0,0,0,0,0,0,0,0,0,0,0,0,0,0,0,0,0,0,0,0,0,0,0,0,0,0,0,0],"split_type":[0,0,0,0,0,0,0,0,0,0,0,0,0,0,0,0,0,0,0,0,0,0,0,0,0,0,0,0,0,0,0,0,0,0,0,0,0,0,0,0,0,0,0,0,0,0,0,0,0,0,0,0,0,0,0,0,0,0,0,0,0,0,0,0,0,0,0,0,0,0,0,0,0,0,0,0,0,0,0,0,0,0,0,0,0,0,0,0,0,0,0,0,0,0,0,0,0],"sum_hessian":[6.561E3,2.909E3,3.652E3,9.63E2,1.946E3,1.463E3,2.189E3,9.38E2,2.5E1,1.717E3,2.29E2,1.124E3,3.39E2,1.611E3,5.78E2,8.72E2,6.6E1,1.262E3,4.55E2,1.31E2,9.8E1,4.12E2,7.12E2,8E1,2.59E2,7.9E1,1.532E3,4.16E2,1.62E2,1.9E1,4.7E1,3.9E1,1.223E3,1.51E2,3.04E2,8.3E1,4.8E1,5.1E1,4.7E1,4.2E1,3.7E2,4.85E2,2.27E2,1.6E1,6.4E1,1.2E2,1.39E2,5.3E1,2.6E1,5.88E2,9.44E2,1.9E2,2.26E2,1.03E2,5.9E1,2.7E1,2E1,2.4E1,1.5E1,6E1,1.163E3,1.01E2,5E1,1.63E2,1.41E2,5.6E1,2.7E1,2.7E1,2.4E1,2.3E1,2.4E1,2.7E1,1.5E1,1.3E2,2.4E2,3.49E2,1.36E2,4.5E1,1.82E2,2.6E1,3.8E1,5.3E1,6.7E1,1.09E2,3E1,7.1E1,5.17E2,2.78E2,6.66E2,7.8E1,1.12E2,1.04E2,1.22E2,2.5E1,7.8E1,2.9E1,3E1],"tree_param":{"num_deleted":"0","num_feature":"2","num_nodes":"97","size_leaf_vector":"1"}},{"base_weights":[2.4191508E-4,-8.9754395E-2,1.6351318E-1,5.7256147E-2,-1.4171349E-1,1.3214321E-1,2.4886274E-1,5.5632247E-3,6.667009E-2,-2.3888952E-1,-1.6367806E-2,7.6018475E-2,1.5629345E-1,2.23876E-2,2.5465372E-1,7.7290037E-3,4.3971892E-3,-2.7465755E-1,-1.7528267E-1,-2.4838181E-2,2.4516316E-2,4.9670707E-2,9.7070605E-2,1.6341685E-1,1.3803059E-1,2.6502362E-2,2.3544397E-2,-1.2058336E-1,-2.8135026E-2,-7.660807E-2,-2.0042898E-1,8.3824145E-3,-4.45413E-2,5.090911E-2,1.568005E-2,6.0278066E-2,1.5067485E-2,1.5573016E-2,9.163361E-2,1.4725822E-1,1.6891044E-1,1.2525143E-1,1.6479567E-2,-7.5410553E-3,-1.7259497E-2,-1.714556E-2,7.2608436E-3,-2.3997152E-2,-1.5513248E-2,-5.0198743E-3,1.2004669E-3,-7.2767283E-3,-3.1231912E-3,3.559131E-3,6.552783E-3,-5.891466E-4,1.8898234E-3,4.3620323E-3,8.060081E-3,3.0419135E-3,-6.668847E-4,1.0006823E-2,6.881922E-3,1.988633E-2,1.4014246E-2,1.8174706E-2,1.5752323E-2,8.390783E-3,1.27864955E-2],"categories":[],"categories_nodes":[],"categories_segments":[],"categories_sizes":[],"default_left":[0,0,0,0,0,0,0,0,0,0,0,0,0,0,0,0,0,0,0,0,0,0,0,0,0,0,0,0,0,0,0,0,0,0,0,0,0,0,0,0,0,0,0,0,0,0,0,0,0,0,0,0,0,0,0,0,0,0,0,0,0,0,0,0,0,0,0,0,0],"id":1,"left_children":[1,3,5,7,9,11,13,-1,15,17,19,21,23,-1,25,-1,-1,27,29,31,33,35,37,39,41,-1,-1,43,-1,45,47,49,51,53,55,57,59,-1,61,63,65,67,-1,-1,-1,-1,-1,-1,-1,-1,-1,-1,-1,-1,-1,-1,-1,-1,-1,-1,-1,-1,-1,-1,-1,-1,-1,-1,-1],"loss_changes":[9.725832E1,3.260174E1,6.2643967E0,1.3336182E-2,3.840151E1,2.3221626E0,3.429413E-2,0E0,3.4928977E-2,3.992424E0,4.778157E-1,2.836101E-1,1.3394737E-1,0E0,3.8196564E-2,0E0,0E0,1.1364517E0,1.5776424E0,7.478687E-1,5.4473385E-2,8.46141E-2,7.758236E-2,5.1467896E-2,9.701872E-2,0E0,0E0,1.02110445E-1,0E0,1.880621E0,8.7804604E-1,9.099806E-2,2.6708317E-1,1.0879457E-2,1.2537707E-2,5.674261E-2,1.888942E-2,0E0,4.429984E-2,5.512047E-2,6.418991E-2,1.4879465E-2,0E0,0E0,0E0,0E0,0E0,0E0,0E0,0E0,0E0,0E0,0E0,0E0,0E0,0E0,0E0,0E0,0E0,0E0,0E0,0E0,0E0,0E0,0E0,0E0,0E0,0E0,0E0],"parents":[2147483647,0,0,1,1,2,2,3,3,4,4,5,5,6,6,8,8,9,9,10,10,11,11,12,12,14,14,17,17,18,18,19,19,20,20,21,21,22,22,23,23,24,24,27,27,29,29,30,30,31,31,32,32,33,33,34,34,35,35,36,36,38,38,39,39,40,40,41,41],"right_children":[2,4,6,8,10,12,14,-1,16,18,20,22,24,-1,26,-1,-1,28,30,32,34,36,38,40,42,-1,-1,44,-1,46,48,50,52,54,56,58,60,-1,62,64,66,68,-1,-1,-1,-1,-1,-1,-1,-1,-1,-1,-1,-1,-1,-1,-1,-1,-1,-1,-1,-1,-1,-1,-1,-1,-1,-1,-1],"split_conditions":[6.5784225E1,5.4158062E1,7.442613E1,5.223073E1,6.2022816E1,6.8302185E1,7.790776E1,5.5632247E-3,5.3598515E1,5.7639694E1,6.488273E1,6.69344E1,7.0913414E1,2.23876E-2,8.599012E1,7.7290037E-3,4.3971892E-3,5.456218E1,5.922508E1,6.385689E1,6.5069244E1,6.6405945E1,6.7089836E1,6.9265854E1,7.2187935E1,2.6502362E-2,2.3544397E-2,5.4344578E1,-2.8135026E-2,5.8074898E1,6.037526E1,6.2271507E1,6.4105576E1,6.497599E1,6.513142E1,6.603291E1,6.662354E1,1.5573016E-2,6.792915E1,6.845762E1,6.970106E1,7.0944496E1,1.6479567E-2,-7.5410553E-3,-1.7259497E-2,-1.714556E-2,7.2608436E-3,-2.3997152E-2,-1.5513248E-2,-5.0198743E-3,1.2004669E-3,-7.2767283E-3,-3.1231912E-3,3.559131E-3,6.552783E-3,-5.891466E-4,1.8898234E-3,4.3620323E-3,8.060081E-3,3.0419135E-3,-6.668847E-4,1.0006823E-2,6.881922E-3,1.988633E-2,1.4014246E-2,1.8174706E-2,1.5752323E-2,8.390783E-3,1.27864955E-2],"split_indices":[0,0,0,0,0,0,0,0,0,0,0,0,0,0,0,0,0,0,0,0,0,0,0,0,0,0,0,0,0,0,0,0,0,0,0,0,0,0,0,0,0,0,0,0,0,0,0,0,0,0,0,0,0,0,0,0,0,0,0,0,0,0,0,0,0,0,0,0,0],"split_type":[0,0,0,0,0,0,0,0,0,0,0,0,0,0,0,0,0,0,0,0,0,0,0,0,0,0,0,0,0,0,0,0,0,0,0,0,0,0,0,0,0,0,0,0,0,0,0,0,0,0,0,0,0,0,0,0,0,0,0,0,0,0,0,0,0,0,0,0,0],"sum_hessian":[6.617E3,4.266E3,2.351E3,1.114E3,3.152E3,1.721E3,6.3E2,9.56E2,1.58E2,1.775E3,1.377E3,5.19E2,1.202E3,1.26E2,5.04E2,1.06E2,5.2E1,1.134E3,6.41E2,1.141E3,2.36E2,2.32E2,2.87E2,8.59E2,3.43E2,3.19E2,1.85E2,4.8E1,1.086E3,1.31E2,5.1E2,4.25E2,7.16E2,5.8E1,1.78E2,1.77E2,5.5E1,2.2E1,2.65E2,2.25E2,6.34E2,2.36E2,1.07E2,2.7E1,2.1E1,8E1,5.1E1,2.7E2,2.4E2,2.4E1,4.01E2,2.28E2,4.88E2,3E1,2.8E1,2.3E1,1.55E2,9.9E1,7.8E1,3.2E1,2.3E1,1.91E2,7.4E1,2.4E1,2.01E2,2.91E2,3.43E2,1.6E1,2.2E2],"tree_param":{"num_deleted":"0","num_feature":"2","num_nodes":"69","size_leaf_vector":"1"}},{"base_weights":[-2.1794839E-3,-8.110011E-2,1.5069054E-1,5.0845712E-2,-1.2581766E-1,1.23980425E-1,2.2177266E-1,5.2189484E-2,2.714604E-2,-2.2361255E-1,-1.8377159E-2,7.763448E-2,1.4017172E-1,1.9940346E-1,2.2724156E-1,5.0404086E-3,7.2939605E-3,1.8546276E-3,3.4360008E-3,-2.4963343E-1,-1.6824803E-1,-3.1115547E-2,2.6823241E-2,5.1662527E-2,8.881658E-2,1.5023534E-1,1.3242814E-1,2.4067149E-2,1.9000197E-2,2.3162713E-2,2.015008E-2,-7.987099E-3,-2.530241E-1,-6.760014E-2,-2.012233E-1,-1.1121759E-1,-2.4705343E-2,3.4949172E-2,-3.6788408E-3,9.957172E-3,-1.3424113E-2,1.3047879E-2,8.4813975E-2,1.2660123E-1,1.6586173E-1,1.2680297E-1,1.6591306E-1,-2.1371828E-2,-2.5431005E-2,-1.9667327E-2,1.2157544E-3,-2.1708393E-2,-1.6245024E-2,-9.626919E-3,-1.2145569E-2,1.4497695E-3,-3.428214E-3,2.7191152E-3,5.9807077E-3,8.715095E-4,-4.330619E-3,4.548272E-3,8.9684455E-3,1.4586664E-2,1.1916854E-2,1.7029382E-2,1.4186087E-2,1.3730359E-2,1.10809095E-2,1.9631794E-2,1.5532865E-2],"categories":[],"categories_nodes":[],"categories_segments":[],"categories_sizes":[],"default_left":[0,0,0,0,0,0,0,0,0,0,0,0,0,0,0,0,0,0,0,0,0,0,0,0,0,0,0,0,0,0,0,0,0,0,0,0,0,0,0,0,0,0,0,0,0,0,0,0,0,0,0,0,0,0,0,0,0,0,0,0,0,0,0,0,0,0,0,0,0,0,0],"id":2,"left_children":[1,3,5,7,9,11,13,15,17,19,21,23,25,27,29,-1,-1,-1,-1,31,33,35,37,39,41,43,45,-1,-1,-1,-1,-1,47,49,51,53,55,57,-1,-1,59,-1,61,63,65,67,69,-1,-1,-1,-1,-1,-1,-1,-1,-1,-1,-1,-1,-1,-1,-1,-1,-1,-1,-1,-1,-1,-1,-1,-1],"loss_changes":[7.930076E1,2.5584173E1,4.2215996E0,3.3551216E-2,3.4017975E1,1.2115211E0,2.9310226E-2,3.4778595E-2,3.1470954E-3,2.399887E0,8.8983935E-1,1.185503E-1,7.4085236E-2,3.9334297E-3,7.850647E-3,0E0,0E0,0E0,0E0,6.423187E-1,1.7951927E0,6.159842E-1,1.7703305E-1,4.0670893E-1,3.8126945E-2,1.6993713E-1,1.0892868E-1,0E0,0E0,0E0,0E0,0E0,2.6626587E-3,1.402453E0,2.1686935E-1,1.9283295E-3,4.19863E-1,5.6613922E-2,0E0,0E0,3.7425086E-2,0E0,4.8025846E-2,1.26879215E-2,8.605957E-3,8.4713936E-2,4.005432E-4,0E0,0E0,0E0,0E0,0E0,0E0,0E0,0E0,0E0,0E0,0E0,0E0,0E0,0E0,0E0,0E0,0E0,0E0,0E0,0E0,0E0,0E0,0E0,0E0],"parents":[2147483647,0,0,1,1,2,2,3,3,4,4,5,5,6,6,7,7,8,8,9,9,10,10,11,11,12,12,13,13,14,14,19,19,20,20,21,21,22,22,23,23,24,24,25,25,26,26,32,32,33,33,34,34,35,35,36,36,37,37,40,40,42,42,43,43,44,44,45,45,46,46],"right_children":[2,4,6,8,10,12,14,16,18,20,22,24,26,28,30,-1,-1,-1,-1,32,34,36,38,40,42,44,46,-1,-1,-1,-1,-1,48,50,52,54,56,58,-1,-1,60,-1,62,64,66,68,70,-1,-1,-1,-1,-1,-1,-1,-1,-1,-1,-1,-1,-1,-1,-1,-1,-1,-1,-1,-1,-1,-1,-1,-1],"split_conditions":[6.603291E1,5.4158062E1,7.442613E1,5.3598515E1,6.115241E1,6.8302185E1,7.790776E1,5.2634846E1,5.3909374E1,5.7639694E1,6.488273E1,6.69344E1,6.970106E1,7.5141106E1,8.89122E1,5.0404086E-3,7.2939605E-3,1.8546276E-3,3.4360008E-3,5.4344578E1,5.922508E1,6.2022816E1,6.597074E1,6.6405945E1,6.7089836E1,6.920368E1,7.2187935E1,2.4067149E-2,1.9000197E-2,2.3162713E-2,2.015008E-2,-7.987099E-3,5.462435E1,5.7795124E1,6.037526E1,6.1587612E1,6.3048656E1,6.5784225E1,-3.6788408E-3,9.957172E-3,6.662354E1,1.3047879E-2,6.724526E1,6.8644135E1,6.96078E1,7.0913414E1,7.274748E1,-2.1371828E-2,-2.5431005E-2,-1.9667327E-2,1.2157544E-3,-2.1708393E-2,-1.6245024E-2,-9.626919E-3,-1.2145569E-2,1.4497695E-3,-3.428214E-3,2.7191152E-3,5.9807077E-3,8.715095E-4,-4.330619E-3,4.548272E-3,8.9684455E-3,1.4586664E-2,1.1916854E-2,1.7029382E-2,1.4186087E-2,1.3730359E-2,1.10809095E-2,1.9631794E-2,1.5532865E-2],"split_indices":[0,0,0,0,0,0,0,0,0,0,0,0,0,0,0,0,0,0,0,0,0,0,0,0,0,0,0,0,0,0,0,0,0,0,0,0,0,0,0,0,0,0,0,0,0,0,0,0,0,0,0,0,0,0,0,0,0,0,0,0,0,0,0,0,0,0,0,0,0,0,0],"split_type":[0,0,0,0,0,0,0,0,0,0,0,0,0,0,0,0,0,0,0,0,0,0,0,0,0,0,0,0,0,0,0,0,0,0,0,0,0,0,0,0,0,0,0,0,0,0,0,0,0,0,0,0,0,0,0,0,0,0,0,0,0,0,0,0,0,0,0,0,0,0,0],"sum_hessian":[6.571E3,4.334E3,2.237E3,1.097E3,3.237E3,1.628E3,6.09E2,1.037E3,6E1,1.694E3,1.543E3,4.23E2,1.205E3,1.27E2,4.82E2,9.58E2,7.9E1,2.9E1,3.1E1,1.15E3,5.44E2,1.204E3,3.39E2,1.29E2,2.94E2,5.16E2,6.89E2,1.9E1,1.08E2,4.05E2,7.7E1,2.3E1,1.127E3,1.35E2,4.09E2,8.8E1,1.116E3,3.01E2,3.8E1,7.4E1,5.5E1,2.3E1,2.71E2,2.09E2,3.07E2,5.94E2,9.5E1,4.1E1,1.086E3,5.1E1,8.4E1,2.87E2,1.22E2,4E1,4.8E1,2.19E2,8.97E2,2.31E2,7E1,3.2E1,2.3E1,3.1E1,2.4E2,5.3E1,1.56E2,2.54E2,5.3E1,3.54E2,2.4E2,2E1,7.5E1],"tree_param":{"num_deleted":"0","num_feature":"2","num_nodes":"71","size_leaf_vector":"1"}},{"base_weights":[6.9201115E-4,-9.590593E-2,7.714437E-2,4.248676E-2,-1.6533867E-1,1.9932143E-2,1.15615465E-1,4.4216223E-2,-1.7400032E-3,-1.914744E-1,-1.1600599E-1,5.0555304E-2,7.4834535E-3,1.4322463E-1,3.9869286E-2,4.4515734E-3,2.9627003E-3,-1.2429156E-1,-1.965804E-1,-1.3195483E-1,-2.3299526E-2,-8.432946E-4,5.4715965E-2,-8.3965575E-3,5.4914683E-2,8.943333E-2,1.4594364E-1,6.350555E-2,-2.6569484E-2,-9.462675E-2,-1.4167204E-1,-1.8845718E-1,-2.1252956E-2,-9.572687E-2,-1.4536506E-1,7.257489E-3,-5.525188E-2,6.470338E-2,3.7705496E-2,-1.6808957E-2,1.4727498E-2,5.8930695E-2,4.773912E-2,1.0152765E-2,6.193235E-3,1.7033426E-1,1.3463141E-1,4.5764215E-2,7.792378E-2,-9.2287315E-3,-6.1750063E-3,-1.1652677E-2,-5.473825E-3,-1.6738323E-2,-1.0998289E-2,-2.014931E-2,-1.8084543E-2,-1.4001793E-2,-8.245338E-3,-1.6647642E-2,-1.0330801E-2,-1.8165732E-3,2.804714E-3,-7.1151354E-3,-3.250474E-3,5.416718E-3,7.531377E-3,-3.4260878E-4,6.2952014E-3,9.5829397E-4,-1.8890974E-3,2.2949034E-3,-2.2120024E-3,5.115175E-3,8.966344E-3,3.8182766E-3,5.5493196E-3,1.3254783E-2,1.7709779E-2,1.1706887E-2,1.5278739E-2,5.0713886E-3,3.2717423E-3,1.06913885E-2,5.4626125E-3,1.3948267E-3,-1.626819E-3],"categories":[],"categories_nodes":[],"categories_segments":[],"categories_sizes":[],"default_left":[0,0,0,0,0,0,0,0,0,0,0,0,0,0,0,0,0,0,0,0,0,0,0,0,0,0,0,0,0,0,0,0,0,0,0,0,0,0,0,0,0,0,0,0,0,0,0,0,0,0,0,0,0,0,0,0,0,0,0,0,0,0,0,0,0,0,0,0,0,0,0,0,0,0,0,0,0,0,0,0,0,0,0,0,0,0,0],"id":3,"left_children":[1,3,5,7,9,11,13,15,-1,17,19,21,23,25,27,-1,-1,29,31,33,35,-1,37,39,41,43,45,47,49,51,53,55,-1,57,59,61,63,65,67,69,71,73,75,-1,-1,77,79,81,83,85,-1,-1,-1,-1,-1,-1,-1,-1,-1,-1,-1,-1,-1,-1,-1,-1,-1,-1,-1,-1,-1,-1,-1,-1,-1,-1,-1,-1,-1,-1,-1,-1,-1,-1,-1,-1,-1],"loss_changes":[4.859424E1,2.7940338E1,8.082031E0,1.014415E-1,2.4739609E0,5.6306225E-1,4.5867596E0,2.8104782E-3,0E0,4.0916443E-1,9.919977E-1,1.05260015E-1,7.928364E-1,2.222786E-1,9.250617E-1,0E0,0E0,3.4028053E-2,1.1192322E-1,2.649479E-1,9.803784E-2,0E0,6.53466E-2,1.5373076E-1,4.794359E-3,2.0320654E-2,3.992157E-1,1.07450366E-1,9.398907E-2,2.594325E-2,2.7217627E-2,4.1553497E-2,0E0,8.134282E-2,3.5304928E-1,2.7993571E-2,1.5408948E-2,2.38688E-2,1.5598007E-1,3.199613E-2,6.442866E-2,3.4859836E-2,5.2911937E-3,0E0,0E0,9.945488E-2,3.1692123E-1,1.1062473E-2,1.549052E-1,1.7358035E-2,0E0,0E0,0E0,0E0,0E0,0E0,0E0,0E0,0E0,0E0,0E0,0E0,0E0,0E0,0E0,0E0,0E0,0E0,0E0,0E0,0E0,0E0,0E0,0E0,0E0,0E0,0E0,0E0,0E0,0E0,0E0,0E0,0E0,0E0,0E0,0E0,0E0],"parents":[2147483647,0,0,1,1,2,2,3,3,4,4,5,5,6,6,7,7,9,9,10,10,11,11,12,12,13,13,14,14,17,17,18,18,19,19,20,20,22,22,23,23,24,24,25,25,26,26,27,27,28,28,29,29,30,30,31,31,33,33,34,34,35,35,36,36,37,37,38,38,39,39,40,40,41,41,42,42,45,45,46,46,47,47,48,48,49,49],"right_children":[2,4,6,8,10,12,14,16,-1,18,20,22,24,26,28,-1,-1,30,32,34,36,-1,38,40,42,44,46,48,50,52,54,56,-1,58,60,62,64,66,68,70,72,74,76,-1,-1,78,80,82,84,86,-1,-1,-1,-1,-1,-1,-1,-1,-1,-1,-1,-1,-1,-1,-1,-1,-1,-1,-1,-1,-1,-1,-1,-1,-1,-1,-1,-1,-1,-1,-1,-1,-1,-1,-1,-1,-1],"split_conditions":[4.3692448E1,3.89432E1,4.7578197E1,3.8689228E1,4.0467022E1,4.547024E1,5.3267136E1,3.856224E1,-1.7400032E-3,3.9171772E1,4.270196E1,4.392102E1,4.6638504E1,4.780677E1,5.7762413E1,4.4515734E-3,2.9627003E-3,3.9044785E1,3.995908E1,4.082258E1,4.3108315E1,-8.432946E-4,4.4987698E1,4.6282948E1,4.7121048E1,4.770518E1,4.978774E1,5.4460796E1,5.9210045E1,3.901939E1,3.9120975E1,3.9501934E1,-2.1252956E-2,4.0543213E1,4.168608E1,4.2955933E1,4.3463875E1,4.4403564E1,4.524167E1,4.5546432E1,4.653692E1,4.7019463E1,4.737502E1,1.0152765E-2,6.193235E-3,4.8111534E1,5.1743313E1,5.372428E1,5.5781445E1,5.8117973E1,-6.1750063E-3,-1.1652677E-2,-5.473825E-3,-1.6738323E-2,-1.0998289E-2,-2.014931E-2,-1.8084543E-2,-1.4001793E-2,-8.245338E-3,-1.6647642E-2,-1.0330801E-2,-1.8165732E-3,2.804714E-3,-7.1151354E-3,-3.250474E-3,5.416718E-3,7.531377E-3,-3.4260878E-4,6.2952014E-3,9.5829397E-4,-1.8890974E-3,2.2949034E-3,-2.2120024E-3,5.115175E-3,8.966344E-3,3.8182766E-3,5.5493196E-3,1.3254783E-2,1.7709779E-2,1.1706887E-2,1.5278739E-2,5.0713886E-3,3.2717423E-3,1.06913885E-2,5.4626125E-3,1.3948267E-3,-1.626819E-3],"split_indices":[1,1,1,1,1,1,1,1,0,1,1,1,1,1,1,0,0,1,1,1,1,0,1,1,1,1,1,1,1,1,1,1,0,1,1,1,1,1,1,1,1,1,1,0,0,1,1,1,1,1,0,0,0,0,0,0,0,0,0,0,0,0,0,0,0,0,0,0,0,0,0,0,0,0,0,0,0,0,0,0,0,0,0,0,0,0,0],"split_type":[0,0,0,0,0,0,0,0,0,0,0,0,0,0,0,0,0,0,0,0,0,0,0,0,0,0,0,0,0,0,0,0,0,0,0,0,0,0,0,0,0,0,0,0,0,0,0,0,0,0,0,0,0,0,0,0,0,0,0,0,0,0,0,0,0,0,0,0,0,0,0,0,0,0,0,0,0,0,0,0,0,0,0,0,0,0,0],"sum_hessian":[6.578E3,2.906E3,3.672E3,9.71E2,1.935E3,1.477E3,2.195E3,9.44E2,2.7E1,1.263E3,6.72E2,4.26E2,1.051E3,1.608E3,5.87E2,9.23E2,2.1E1,9.1E1,1.172E3,5.73E2,9.9E1,2.8E1,3.98E2,7.88E2,2.63E2,7.9E1,1.529E3,4.33E2,1.54E2,3.6E1,5.5E1,7.85E2,3.87E2,1.57E2,4.16E2,5.1E1,4.8E1,2.49E2,1.49E2,5.78E2,2.1E2,1.64E2,9.9E1,5.3E1,2.6E1,4.8E2,1.049E3,1.96E2,2.37E2,1.04E2,5E1,2.2E1,1.4E1,2.8E1,2.7E1,2.8E2,5.05E2,3.4E1,1.23E2,2.75E2,1.41E2,2.3E1,2.8E1,2.7E1,2.1E1,1.28E2,1.21E2,5.7E1,9.2E1,4.2E1,5.36E2,1.72E2,3.8E1,1.33E2,3.1E1,4.7E1,5.2E1,7.6E1,4.04E2,5.37E2,5.12E2,1.4E2,5.6E1,1.04E2,1.33E2,2.4E1,8E1],"tree_param":{"num_deleted":"0","num_feature":"2","num_nodes":"87","size_leaf_vector":"1"}},{"base_weights":[-2.2876708E-4,-8.4528506E-2,6.829227E-2,3.800048E-2,-1.4575027E-1,1.4250492E-2,1.02872595E-1,3.9812632E-2,-1.9285055E-3,-1.7055258E-1,-1.00822344E-1,5.89897E-3,3.753466E-2,1.2697414E-1,3.2004345E-2,4.0307357E-3,3.3708035E-3,-5.917546E-3,-1.7402466E-1,-1.1253189E-1,-3.4944206E-2,3.204125E-2,-1.3010283E-2,2.708823E-2,5.1167056E-2,7.657431E-2,1.316383E-1,5.4333165E-2,-3.3808816E-2,-1.639323E-1,-1.8881091E-1,-1.2638947E-1,-9.494514E-2,-9.489485E-3,-5.841128E-3,4.111025E-2,1.5856875E-2,-1.8875524E-2,6.6327904E-3,4.1683264E-2,1.4737371E-2,1.0153018E-2,4.0792264E-2,8.693176E-3,2.4209828E-3,1.5808502E-1,1.24885514E-1,4.5437537E-2,6.024795E-2,-1.8202456E-2,-5.8731787E-2,-1.7006803E-2,-1.5485304E-2,-1.7871425E-2,-1.9834299E-2,-9.304033E-3,-1.5577677E-2,-8.841918E-3,-1.2301373E-2,-1.04650964E-4,-1.7580999E-3,-4.444452E-4,4.695903E-3,-2.587495E-3,2.9983108E-3,-7.832683E-4,-2.13635E-3,1.1339023E-3,-3.3655502E-3,2.6855355E-3,1.019227E-2,4.6431893E-4,3.3581492E-3,4.9704397E-3,-7.6577424E-5,1.3346434E-2,1.6624587E-2,1.1112268E-2,1.445843E-2,6.128171E-3,1.4576322E-3,9.034131E-3,5.231258E-3,-3.1748656E-3,-3.9507324E-4,-4.5574754E-3,-6.979126E-3],"categories":[],"categories_nodes":[],"categories_segments":[],"categories_sizes":[],"default_left":[0,0,0,0,0,0,0,0,0,0,0,0,0,0,0,0,0,0,0,0,0,0,0,0,0,0,0,0,0,0,0,0,0,0,0,0,0,0,0,0,0,0,0,0,0,0,0,0,0,0,0,0,0,0,0,0,0,0,0,0,0,0,0,0,0,0,0,0,0,0,0,0,0,0,0,0,0,0,0,0,0,0,0,0,0,0,0],"id":4,"left_children":[1,3,5,7,9,11,13,15,-1,17,19,21,23,25,27,-1,-1,-1,29,31,33,35,37,39,41,43,45,47,49,51,53,55,57,59,-1,61,63,65,67,69,71,-1,73,-1,-1,75,77,79,81,83,85,-1,-1,-1,-1,-1,-1,-1,-1,-1,-1,-1,-1,-1,-1,-1,-1,-1,-1,-1,-1,-1,-1,-1,-1,-1,-1,-1,-1,-1,-1,-1,-1,-1,-1,-1,-1],"loss_changes":[3.8210255E1,2.2254814E1,6.8177204E0,1.03435755E-1,2.1869202E0,2.768816E-1,3.7963142E0,1.5375614E-3,0E0,4.8198318E-1,5.40678E-1,5.194644E-1,5.2160144E-2,3.801422E-1,8.33591E-1,0E0,0E0,0E0,1.5319443E-1,1.3398266E-1,6.395927E-2,6.4076394E-2,7.040413E-2,3.8141847E-2,8.050445E-2,7.545334E-2,2.5135612E-1,1.9518971E-2,5.494073E-2,1.4944077E-2,1.2098312E-2,3.108797E-1,3.8214207E-2,3.6023725E-3,0E0,7.534456E-2,9.509796E-2,1.2745604E-2,2.7116079E-2,8.479887E-2,2.2289561E-2,0E0,5.0408483E-2,0E0,0E0,3.9094448E-2,3.1306267E-1,8.369863E-2,5.5213273E-2,1.7249672E-2,4.822314E-3,0E0,0E0,0E0,0E0,0E0,0E0,0E0,0E0,0E0,0E0,0E0,0E0,0E0,0E0,0E0,0E0,0E0,0E0,0E0,0E0,0E0,0E0,0E0,0E0,0E0,0E0,0E0,0E0,0E0,0E0,0E0,0E0,0E0,0E0,0E0,0E0],"parents":[2147483647,0,0,1,1,2,2,3,3,4,4,5,5,6,6,7,7,9,9,10,10,11,11,12,12,13,13,14,14,18,18,19,19,20,20,21,21,22,22,23,23,24,24,25,25,26,26,27,27,28,28,29,29,30,30,31,31,32,32,33,33,35,35,36,36,37,37,38,38,39,39,40,40,42,42,45,45,46,46,47,47,48,48,49,49,50,50],"right_children":[2,4,6,8,10,12,14,16,-1,18,20,22,24,26,28,-1,-1,-1,30,32,34,36,38,40,42,44,46,48,50,52,54,56,58,60,-1,62,64,66,68,70,72,-1,74,-1,-1,76,78,80,82,84,86,-1,-1,-1,-1,-1,-1,-1,-1,-1,-1,-1,-1,-1,-1,-1,-1,-1,-1,-1,-1,-1,-1,-1,-1,-1,-1,-1,-1,-1,-1,-1,-1,-1,-1,-1,-1],"split_conditions":[4.3692448E1,3.89432E1,4.737502E1,3.8689228E1,4.0467022E1,4.640993E1,5.3267136E1,3.823208E1,-1.9285055E-3,3.9044785E1,4.270196E1,4.547024E1,4.6790886E1,4.780677E1,5.7762413E1,4.0307357E-3,3.3708035E-3,-5.917546E-3,3.97813E1,4.1305122E1,4.3108315E1,4.4987698E1,4.6105167E1,4.651152E1,4.6892475E1,4.770518E1,4.892424E1,5.402905E1,5.9210045E1,3.960352E1,4.011146E1,4.082258E1,4.227021E1,4.2955933E1,-5.841128E-3,4.392102E1,4.514008E1,4.5698814E1,4.6384533E1,4.6460724E1,4.66893E1,1.0153018E-2,4.7222637E1,8.693176E-3,2.4209828E-3,4.8111534E1,5.1743313E1,5.3521107E1,5.4816357E1,5.8448135E1,5.9514812E1,-1.7006803E-2,-1.5485304E-2,-1.7871425E-2,-1.9834299E-2,-9.304033E-3,-1.5577677E-2,-8.841918E-3,-1.2301373E-2,-1.04650964E-4,-1.7580999E-3,-4.444452E-4,4.695903E-3,-2.587495E-3,2.9983108E-3,-7.832683E-4,-2.13635E-3,1.1339023E-3,-3.3655502E-3,2.6855355E-3,1.019227E-2,4.6431893E-4,3.3581492E-3,4.9704397E-3,-7.6577424E-5,1.3346434E-2,1.6624587E-2,1.1112268E-2,1.445843E-2,6.128171E-3,1.4576322E-3,9.034131E-3,5.231258E-3,-3.1748656E-3,-3.9507324E-4,-4.5574754E-3,-6.979126E-3],"split_indices":[1,1,1,1,1,1,1,1,0,1,1,1,1,1,1,0,0,0,1,1,1,1,1,1,1,1,1,1,1,1,1,1,1,1,0,1,1,1,1,1,1,0,1,0,0,1,1,1,1,1,1,0,0,0,0,0,0,0,0,0,0,0,0,0,0,0,0,0,0,0,0,0,0,0,0,0,0,0,0,0,0,0,0,0,0,0,0],"split_type":[0,0,0,0,0,0,0,0,0,0,0,0,0,0,0,0,0,0,0,0,0,0,0,0,0,0,0,0,0,0,0,0,0,0,0,0,0,0,0,0,0,0,0,0,0,0,0,0,0,0,0,0,0,0,0,0,0,0,0,0,0,0,0,0,0,0,0,0,0,0,0,0,0,0,0,0,0,0,0,0,0,0,0,0,0,0,0],"sum_hessian":[6.613E3,2.965E3,3.648E3,9.88E2,1.977E3,1.424E3,2.224E3,9.58E2,3E1,1.272E3,7.05E2,1.049E3,3.75E2,1.659E3,5.65E2,8.81E2,7.7E1,3.9E1,1.233E3,5.98E2,1.07E2,4.4E2,6.09E2,2.14E2,1.61E2,1.42E2,1.517E3,4.22E2,1.43E2,7.4E2,4.93E2,3.31E2,2.67E2,5.2E1,5.5E1,2.81E2,1.59E2,4.69E2,1.4E2,9.7E1,1.17E2,2.6E1,1.35E2,1.18E2,2.4E1,3.04E2,1.213E3,1.72E2,2.5E2,8.9E1,5.4E1,4.31E2,3.09E2,2.49E2,2.44E2,1.57E2,1.74E2,2.2E2,4.7E1,2.6E1,2.6E1,3.2E1,2.49E2,4E1,1.19E2,8.7E1,3.82E2,1.26E2,1.4E1,7.9E1,1.8E1,7.7E1,4E1,1.11E2,2.4E1,8E1,2.24E2,7.18E2,4.95E2,1.13E2,5.9E1,5E1,2E2,4.5E1,4.4E1,2.7E1,2.7E1],"tree_param":{"num_deleted":"0","num_feature":"2","num_nodes":"87","size_leaf_vector":"1"}},{"base_weights":[5.0608686E-4,-7.566874E-2,6.164028E-2,3.447074E-2,-1.3227957E-1,1.34171685E-2,9.125324E-2,3.5852447E-2,-1.6854529E-3,-1.4247264E-1,-4.177255E-2,4.7777027E-2,5.4785204E-3,1.1305493E-1,3.7421074E-2,3.607841E-3,2.6191243E-3,-1.5464734E-1,-1.11194685E-1,-7.5103015E-2,-2.2285182E-2,4.0180147E-2,6.4652637E-3,-2.9449172E-3,4.4373624E-2,6.89434E-2,1.1691394E-1,5.6924757E-2,-2.8008481E-2,-5.0845955E-2,-1.5757158E-1,-7.982635E-2,-1.2499448E-1,-3.7016608E-3,-9.53845E-3,1.4185835E-2,-4.9458068E-2,5.9020735E-2,2.5119878E-2,-3.2010403E-2,-7.082973E-4,7.922473E-3,4.0344298E-2,6.1667725E-2,7.3747686E-3,1.5847975E-1,1.1312712E-1,4.6132244E-2,6.869018E-2,-1.0161787E-2,-6.115303E-3,-6.493421E-3,-3.1280597E-3,-1.2217165E-2,-1.599053E-2,-1.155994E-2,-6.872732E-3,-1.4322569E-2,-1.0983145E-2,-1.8251007E-3,5.384009E-3,-7.0008384E-3,-9.616801E-4,3.782672E-3,6.58082E-3,1.4907806E-3,3.466531E-3,-3.6672142E-3,-2.4637366E-3,1.03364205E-2,-2.5269212E-4,2.6977132E-4,4.855383E-3,7.2488473E-3,4.9555814E-3,1.2301669E-2,1.9944353E-2,1.041432E-2,1.3044457E-2,5.7435925E-3,2.3514803E-3,1.3156845E-2,5.9806807E-3,-1.98231E-3,-1.220187E-4],"categories":[],"categories_nodes":[],"categories_segments":[],"categories_sizes":[],"default_left":[0,0,0,0,0,0,0,0,0,0,0,0,0,0,0,0,0,0,0,0,0,0,0,0,0,0,0,0,0,0,0,0,0,0,0,0,0,0,0,0,0,0,0,0,0,0,0,0,0,0,0,0,0,0,0,0,0,0,0,0,0,0,0,0,0,0,0,0,0,0,0,0,0,0,0,0,0,0,0,0,0,0,0,0,0],"id":5,"left_children":[1,3,5,7,9,11,13,15,-1,17,19,21,23,25,27,-1,-1,29,31,33,35,37,-1,39,41,43,45,47,49,51,53,55,57,-1,-1,59,61,63,65,67,69,-1,71,73,-1,75,77,79,81,83,-1,-1,-1,-1,-1,-1,-1,-1,-1,-1,-1,-1,-1,-1,-1,-1,-1,-1,-1,-1,-1,-1,-1,-1,-1,-1,-1,-1,-1,-1,-1,-1,-1,-1,-1],"loss_changes":[3.0907763E1,1.8429247E1,5.256778E0,7.180452E-2,1.7948532E0,3.8216293E-1,2.672823E0,1.1899471E-3,0E0,6.507263E-1,1.2758142E-1,3.1119347E-2,3.7362942E-1,2.682209E-1,8.425557E-1,0E0,0E0,3.7444878E-1,2.0429611E-1,5.2857935E-2,1.265615E-1,5.0726384E-2,0E0,6.095525E-2,2.5310308E-2,1.0108948E-4,2.1675682E-1,6.133616E-2,8.9289695E-2,7.891931E-3,8.166504E-2,5.3200305E-2,7.8811646E-2,0E0,0E0,7.1726866E-2,5.909553E-2,9.162843E-3,9.620994E-3,1.3993606E-3,1.6530353E-1,0E0,5.673623E-2,4.1403174E-3,0E0,1.5269446E-1,1.9955826E-1,6.716633E-2,1.2674713E-1,8.614571E-3,0E0,0E0,0E0,0E0,0E0,0E0,0E0,0E0,0E0,0E0,0E0,0E0,0E0,0E0,0E0,0E0,0E0,0E0,0E0,0E0,0E0,0E0,0E0,0E0,0E0,0E0,0E0,0E0,0E0,0E0,0E0,0E0,0E0,0E0,0E0],"parents":[2147483647,0,0,1,1,2,2,3,3,4,4,5,5,6,6,7,7,9,9,10,10,11,11,12,12,13,13,14,14,17,17,18,18,19,19,20,20,21,21,23,23,24,24,25,25,26,26,27,27,28,28,29,29,30,30,31,31,32,32,35,35,36,36,37,37,38,38,39,39,40,40,42,42,43,43,45,45,46,46,47,47,48,48,49,49],"right_children":[2,4,6,8,10,12,14,16,-1,18,20,22,24,26,28,-1,-1,30,32,34,36,38,-1,40,42,44,46,48,50,52,54,56,58,-1,-1,60,62,64,66,68,70,-1,72,74,-1,76,78,80,82,84,-1,-1,-1,-1,-1,-1,-1,-1,-1,-1,-1,-1,-1,-1,-1,-1,-1,-1,-1,-1,-1,-1,-1,-1,-1,-1,-1,-1,-1,-1,-1,-1,-1,-1,-1],"split_conditions":[4.392102E1,3.89432E1,4.737502E1,3.8689228E1,4.2041637E1,4.4987698E1,5.3089355E1,3.856224E1,-1.6854529E-3,4.0467022E1,4.270196E1,4.4682934E1,4.6638504E1,4.780677E1,5.7762413E1,3.607841E-3,2.6191243E-3,3.9044785E1,4.082258E1,4.227021E1,4.3108315E1,4.4225784E1,6.4652637E-3,4.524167E1,4.66893E1,4.7578197E1,4.8213123E1,5.4460796E1,5.9210045E1,3.901939E1,3.9247963E1,4.0543213E1,4.1279728E1,-3.7016608E-3,-9.53845E-3,4.2955933E1,4.3692448E1,4.4124195E1,4.4403564E1,4.514008E1,4.531786E1,7.922473E-3,4.6790886E1,4.747661E1,7.3747686E-3,4.8111534E1,5.1743313E1,5.3521107E1,5.4816357E1,5.8448135E1,-6.115303E-3,-6.493421E-3,-3.1280597E-3,-1.2217165E-2,-1.599053E-2,-1.155994E-2,-6.872732E-3,-1.4322569E-2,-1.0983145E-2,-1.8251007E-3,5.384009E-3,-7.0008384E-3,-9.616801E-4,3.782672E-3,6.58082E-3,1.4907806E-3,3.466531E-3,-3.6672142E-3,-2.4637366E-3,1.03364205E-2,-2.5269212E-4,2.6977132E-4,4.855383E-3,7.2488473E-3,4.9555814E-3,1.2301669E-2,1.9944353E-2,1.041432E-2,1.3044457E-2,5.7435925E-3,2.3514803E-3,1.3156845E-2,5.9806807E-3,-1.98231E-3,-1.220187E-4],"split_indices":[1,1,1,1,1,1,1,1,0,1,1,1,1,1,1,0,0,1,1,1,1,1,0,1,1,1,1,1,1,1,1,1,1,0,0,1,1,1,1,1,1,0,1,1,0,1,1,1,1,1,0,0,0,0,0,0,0,0,0,0,0,0,0,0,0,0,0,0,0,0,0,0,0,0,0,0,0,0,0,0,0,0,0,0,0],"split_type":[0,0,0,0,0,0,0,0,0,0,0,0,0,0,0,0,0,0,0,0,0,0,0,0,0,0,0,0,0,0,0,0,0,0,0,0,0,0,0,0,0,0,0,0,0,0,0,0,0,0,0,0,0,0,0,0,0,0,0,0,0,0,0,0,0,0,0,0,0,0,0,0,0,0,0,0,0,0,0,0,0,0,0,0,0],"sum_hessian":[6.635E3,2.954E3,3.681E3,1.003E3,1.951E3,1.401E3,2.28E3,9.77E2,2.6E1,1.753E3,1.98E2,2.62E2,1.139E3,1.622E3,6.58E2,9.52E2,2.5E1,1.259E3,4.94E2,7.2E1,1.26E2,1.83E2,7.9E1,9.37E2,2.02E2,1.32E2,1.49E3,5.07E2,1.51E2,3.5E1,1.224E3,1.53E2,3.41E2,2.6E1,4.6E1,5.4E1,7.2E1,8E1,1.03E2,6.6E1,8.71E2,1.9E1,1.83E2,5.8E1,7.4E1,1.21E2,1.369E3,2.67E2,2.4E2,9.9E1,5.2E1,1.9E1,1.6E1,7.9E1,1.145E3,3.4E1,1.19E2,1.51E2,1.9E2,3E1,2.4E1,4.7E1,2.5E1,2.1E1,5.9E1,5.1E1,5.2E1,3.8E1,2.8E1,1.4E1,8.57E2,3.3E1,1.5E2,2.8E1,3E1,6.7E1,5.4E1,9.06E2,4.63E2,1.77E2,9E1,2.8E1,2.12E2,4.7E1,5.2E1],"tree_param":{"num_deleted":"0","num_feature":"2","num_nodes":"85","size_leaf_vector":"1"}},{"base_weights":[1.2788428E-3,-6.928707E-2,5.8072135E-2,3.074519E-2,-1.1990983E-1,1.1979552E-2,8.249753E-2,3.2248553E-2,-1.8236944E-3,-1.3051315E-1,-5.3282015E-2,3.1789977E-2,3.353703E-3,1.00529626E-1,2.60747E-2,3.2677487E-3,2.6768623E-2,-1.3781999E-1,-1.0633265E-1,-7.272452E-2,-2.1736449E-2,2.8477537E-2,5.4864503E-2,-8.206784E-3,3.8765546E-2,5.7188746E-2,1.08154014E-1,4.369862E-2,-2.3606148E-2,2.074082E-3,2.8583445E-2,-8.480855E-2,-1.4178587E-1,-6.5687284E-2,-1.22646526E-1,-4.9244694E-2,-1.2325252E-2,1.0329208E-2,-5.1618155E-2,3.1651363E-2,1.4444627E-2,9.418943E-3,3.5326981E-3,-1.2880169E-2,8.348958E-3,5.6305755E-2,2.4384009E-2,8.012995E-3,4.4422954E-2,1.227007E-1,9.641375E-2,3.3288587E-2,5.0726514E-2,-1.7302658E-2,-5.0903647E-3,3.21512E-3,2.301609E-3,-5.958391E-3,-1.0145582E-2,-1.3484056E-2,-1.6100982E-2,-8.252025E-3,-4.892919E-4,-1.3697661E-2,-9.819715E-3,-6.108372E-3,-1.3664665E-3,-1.7676872E-3,3.0522693E-3,-6.539415E-3,-3.7487324E-3,2.8818087E-3,3.934626E-3,1.7584156E-3,9.780081E-4,-2.7301317E-4,-2.1204303E-3,2.4462566E-3,-2.0921692E-5,4.2142174E-3,1.0872845E-2,1.5342925E-3,3.3624761E-3,1.3464051E-3,5.5512222E-3,1.4811145E-2,1.1672146E-2,7.477415E-3,1.1132247E-2,4.4794763E-3,-1.9529458E-3,6.8709105E-3,3.2055893E-3,3.5869677E-4,-2.2560935E-3],"categories":[],"categories_nodes":[],"categories_segments":[],"categories_sizes":[],"default_left":[0,0,0,0,0,0,0,0,0,0,0,0,0,0,0,0,0,0,0,0,0,0,0,0,0,0,0,0,0,0,0,0,0,0,0,0,0,0,0,0,0,0,0,0,0,0,0,0,0,0,0,0,0,0,0,0,0,0,0,0,0,0,0,0,0,0,0,0,0,0,0,0,0,0,0,0,0,0,0,0,0,0,0,0,0,0,0,0,0,0,0,0,0,0,0],"id":6,"left_children":[1,3,5,7,9,11,13,15,-1,17,19,21,23,25,27,-1,29,31,33,35,37,39,41,43,45,47,49,51,53,-1,55,57,59,61,63,65,-1,67,69,71,73,-1,-1,75,77,79,81,-1,83,85,87,89,91,93,-1,-1,-1,-1,-1,-1,-1,-1,-1,-1,-1,-1,-1,-1,-1,-1,-1,-1,-1,-1,-1,-1,-1,-1,-1,-1,-1,-1,-1,-1,-1,-1,-1,-1,-1,-1,-1,-1,-1,-1,-1],"loss_changes":[2.6350449E1,1.48510685E1,4.1004105E0,7.319522E-2,1.3685551E0,2.15717E-1,2.419859E0,1.3747215E-3,0E0,2.8199577E-1,1.6340369E-1,2.7711451E-2,3.6098024E-1,5.8994293E-1,5.071118E-1,0E0,2.2761524E-4,2.5833893E-1,2.531991E-1,1.90871E-1,1.0018354E-1,1.4552146E-2,3.278321E-2,5.155949E-2,5.3366423E-2,7.609904E-2,2.4998093E-1,2.955097E-2,2.5273785E-2,0E0,3.5246834E-4,3.2587647E-2,1.3784027E-1,1.1728138E-1,8.465052E-2,4.7607124E-2,0E0,2.9382102E-2,8.060515E-3,4.8398077E-3,7.652715E-4,0E0,0E0,4.3792583E-2,2.0276867E-2,6.7439795E-2,9.593219E-3,0E0,6.001872E-2,8.618069E-2,2.6686954E-1,1.0722819E-1,8.27412E-2,1.381135E-2,0E0,0E0,0E0,0E0,0E0,0E0,0E0,0E0,0E0,0E0,0E0,0E0,0E0,0E0,0E0,0E0,0E0,0E0,0E0,0E0,0E0,0E0,0E0,0E0,0E0,0E0,0E0,0E0,0E0,0E0,0E0,0E0,0E0,0E0,0E0,0E0,0E0,0E0,0E0,0E0,0E0],"parents":[2147483647,0,0,1,1,2,2,3,3,4,4,5,5,6,6,7,7,9,9,10,10,11,11,12,12,13,13,14,14,16,16,17,17,18,18,19,19,20,20,21,21,22,22,23,23,24,24,25,25,26,26,27,27,28,28,30,30,31,31,32,32,33,33,34,34,35,35,37,37,38,38,39,39,40,40,43,43,44,44,45,45,46,46,48,48,49,49,50,50,51,51,52,52,53,53],"right_children":[2,4,6,8,10,12,14,16,-1,18,20,22,24,26,28,-1,30,32,34,36,38,40,42,44,46,48,50,52,54,-1,56,58,60,62,64,66,-1,68,70,72,74,-1,-1,76,78,80,82,-1,84,86,88,90,92,94,-1,-1,-1,-1,-1,-1,-1,-1,-1,-1,-1,-1,-1,-1,-1,-1,-1,-1,-1,-1,-1,-1,-1,-1,-1,-1,-1,-1,-1,-1,-1,-1,-1,-1,-1,-1,-1,-1,-1,-1,-1],"split_conditions":[4.3692448E1,3.89432E1,4.6790886E1,3.8689228E1,4.168608E1,4.5343254E1,5.3267136E1,3.823208E1,-1.8236944E-3,4.0543213E1,4.270196E1,4.524167E1,4.640993E1,4.780677E1,5.7762413E1,3.2677487E-3,3.840986E1,3.9171772E1,4.082258E1,4.227021E1,4.3108315E1,4.4987698E1,4.531786E1,4.6105167E1,4.651152E1,4.7121048E1,5.0549652E1,5.402905E1,5.9514812E1,2.074082E-3,3.856224E1,3.9044785E1,4.0086067E1,4.0746387E1,4.1305122E1,4.2041637E1,-1.2325252E-2,4.2955933E1,4.3463875E1,4.4682934E1,4.514008E1,9.418943E-3,3.5326981E-3,4.5825798E1,4.6206757E1,4.6460724E1,4.6638504E1,8.012995E-3,4.737502E1,4.8213123E1,5.1743313E1,5.372428E1,5.5781445E1,5.8117973E1,-5.0903647E-3,3.21512E-3,2.301609E-3,-5.958391E-3,-1.0145582E-2,-1.3484056E-2,-1.6100982E-2,-8.252025E-3,-4.892919E-4,-1.3697661E-2,-9.819715E-3,-6.108372E-3,-1.3664665E-3,-1.7676872E-3,3.0522693E-3,-6.539415E-3,-3.7487324E-3,2.8818087E-3,3.934626E-3,1.7584156E-3,9.780081E-4,-2.7301317E-4,-2.1204303E-3,2.4462566E-3,-2.0921692E-5,4.2142174E-3,1.0872845E-2,1.5342925E-3,3.3624761E-3,1.3464051E-3,5.5512222E-3,1.4811145E-2,1.1672146E-2,7.477415E-3,1.1132247E-2,4.4794763E-3,-1.9529458E-3,6.8709105E-3,3.2055893E-3,3.5869677E-4,-2.2560935E-3],"split_indices":[1,1,1,1,1,1,1,1,0,1,1,1,1,1,1,0,1,1,1,1,1,1,1,1,1,1,1,1,1,0,1,1,1,1,1,1,0,1,1,1,1,0,0,1,1,1,1,0,1,1,1,1,1,1,0,0,0,0,0,0,0,0,0,0,0,0,0,0,0,0,0,0,0,0,0,0,0,0,0,0,0,0,0,0,0,0,0,0,0,0,0,0,0,0,0],"split_type":[0,0,0,0,0,0,0,0,0,0,0,0,0,0,0,0,0,0,0,0,0,0,0,0,0,0,0,0,0,0,0,0,0,0,0,0,0,0,0,0,0,0,0,0,0,0,0,0,0,0,0,0,0,0,0,0,0,0,0,0,0,0,0,0,0,0,0,0,0,0,0,0,0,0,0,0,0,0,0,0,0,0,0,0,0,0,0,0,0,0,0,0,0,0,0],"sum_hessian":[6.573E3,2.931E3,3.642E3,9.85E2,1.946E3,1.262E3,2.38E3,9.56E2,2.9E1,1.678E3,2.68E2,3.82E2,8.8E2,1.803E3,5.77E2,8.82E2,7.4E1,1.285E3,3.93E2,1.65E2,1.03E2,3.36E2,4.6E1,6.64E2,2.16E2,2.71E2,1.532E3,4.26E2,1.51E2,2E1,5.4E1,9.1E1,1.194E3,1.14E2,2.79E2,1.14E2,5.1E1,5E1,5.3E1,2.73E2,6.3E1,1.4E1,3.2E1,5.18E2,1.46E2,9.6E1,1.2E2,9.5E1,1.76E2,6.8E2,8.52E2,1.74E2,2.52E2,1.24E2,2.7E1,3E1,2.4E1,3.8E1,5.3E1,8.83E2,3.11E2,8.9E1,2.5E1,1.73E2,1.06E2,8.5E1,2.9E1,2.1E1,2.9E1,2.5E1,2.8E1,2.03E2,7E1,3.6E1,2.7E1,2.34E2,2.84E2,5E1,9.6E1,7.7E1,1.9E1,6.2E1,5.8E1,4.7E1,1.29E2,1.25E2,5.55E2,3.5E2,5.02E2,1.43E2,3.1E1,1.27E2,1.25E2,2.5E1,9.9E1],"tree_param":{"num_deleted":"0","num_feature":"2","num_nodes":"95","size_leaf_vector":"1"}},{"base_weights":[5.1123166E-4,-6.350173E-2,5.1822655E-2,2.7094472E-2,-1.07622676E-1,1.6821317E-2,7.437537E-2,2.8704325E-2,-1.9192683E-3,-1.1649745E-1,-4.853284E-2,4.242116E-2,8.492371E-3,9.3192786E-2,3.2390974E-2,2.941501E-3,1.993864E-2,-1.2397749E-1,-9.715484E-2,-7.129877E-2,-2.7889783E-2,1.028353E-1,3.730311E-2,-1.0831789E-2,2.5845686E-2,8.563566E-2,1.12946145E-1,4.8807584E-2,-1.7912311E-2,6.599408E-4,2.5563417E-2,-5.739098E-2,-1.2621403E-1,-7.432717E-2,-1.099579E-1,-3.896232E-2,-1.2458016E-2,-3.895806E-2,-1.1477699E-2,7.636051E-3,1.4020639E-2,2.9237937E-2,8.593517E-3,1.2174919E-2,-1.5216835E-2,2.8204488E-2,-1.9374735E-3,9.843704E-2,6.583437E-2,1.6456377E-2,1.10111244E-1,3.894668E-2,6.1752237E-2,-1.10288765E-2,-4.434427E-3,2.9174797E-3,1.9898487E-3,-6.7081796E-3,-3.5475397E-3,-1.2045474E-2,-1.4132477E-2,-8.445193E-3,9.374725E-4,-1.3875427E-2,-1.0397421E-2,-5.3825043E-3,-8.8947633E-4,-1.9650988E-3,-8.479804E-3,-1.5925433E-3,-7.233616E-4,3.973787E-3,-1.2906338E-3,-2.0778866E-3,2.757101E-3,-2.1685453E-3,-4.629224E-5,1.5529101E-3,3.7907534E-3,6.0280906E-3,1.09746205E-2,5.657315E-3,7.912559E-3,8.334324E-3,1.1400305E-2,5.696942E-3,2.946554E-3,9.578774E-3,3.5944798E-3,1.6739582E-4,-1.4162062E-3],"categories":[],"categories_nodes":[],"categories_segments":[],"categories_sizes":[],"default_left":[0,0,0,0,0,0,0,0,0,0,0,0,0,0,0,0,0,0,0,0,0,0,0,0,0,0,0,0,0,0,0,0,0,0,0,0,0,0,0,0,0,0,0,0,0,0,0,0,0,0,0,0,0,0,0,0,0,0,0,0,0,0,0,0,0,0,0,0,0,0,0,0,0,0,0,0,0,0,0,0,0,0,0,0,0,0,0,0,0,0,0],"id":7,"left_children":[1,3,5,7,9,11,13,15,-1,17,19,21,23,25,27,-1,29,31,33,35,37,39,41,43,45,47,49,51,53,-1,55,57,59,61,63,65,-1,67,69,-1,-1,71,-1,73,75,77,-1,79,81,-1,83,85,87,89,-1,-1,-1,-1,-1,-1,-1,-1,-1,-1,-1,-1,-1,-1,-1,-1,-1,-1,-1,-1,-1,-1,-1,-1,-1,-1,-1,-1,-1,-1,-1,-1,-1,-1,-1,-1,-1],"loss_changes":[2.1711185E1,1.1758654E1,2.8949661E0,7.238382E-2,1.0316257E0,3.064629E-1,1.7595558E0,5.2195787E-3,0E0,2.3666573E-1,1.20200634E-1,1.0531247E-1,3.6479262E-1,2.202177E-1,5.7233435E-1,0E0,5.3085014E-3,1.7682457E-1,1.3328266E-1,2.070666E-1,2.4621032E-2,1.6007334E-2,1.2574536E-1,5.214128E-2,6.166607E-2,2.769146E-1,4.3777466E-2,6.422615E-2,3.0623123E-2,0E0,4.628338E-4,6.540194E-3,8.697319E-2,1.507923E-1,3.8644075E-2,3.4378327E-2,0E0,7.090658E-2,9.607654E-4,0E0,0E0,1.2530132E-1,0E0,4.2683735E-2,4.1314356E-2,6.644082E-2,0E0,2.8551912E-1,4.9930573E-2,0E0,3.258562E-2,4.9413383E-2,1.9331157E-1,5.4763537E-3,0E0,0E0,0E0,0E0,0E0,0E0,0E0,0E0,0E0,0E0,0E0,0E0,0E0,0E0,0E0,0E0,0E0,0E0,0E0,0E0,0E0,0E0,0E0,0E0,0E0,0E0,0E0,0E0,0E0,0E0,0E0,0E0,0E0,0E0,0E0,0E0,0E0],"parents":[2147483647,0,0,1,1,2,2,3,3,4,4,5,5,6,6,7,7,9,9,10,10,11,11,12,12,13,13,14,14,16,16,17,17,18,18,19,19,20,20,21,21,22,22,23,23,24,24,25,25,26,26,27,27,28,28,30,30,31,31,32,32,33,33,34,34,35,35,37,37,38,38,41,41,43,43,44,44,45,45,47,47,48,48,50,50,51,51,52,52,53,53],"right_children":[2,4,6,8,10,12,14,16,-1,18,20,22,24,26,28,-1,30,32,34,36,38,40,42,44,46,48,50,52,54,-1,56,58,60,62,64,66,-1,68,70,-1,-1,72,-1,74,76,78,-1,80,82,-1,84,86,88,90,-1,-1,-1,-1,-1,-1,-1,-1,-1,-1,-1,-1,-1,-1,-1,-1,-1,-1,-1,-1,-1,-1,-1,-1,-1,-1,-1,-1,-1,-1,-1,-1,-1,-1,-1,-1,-1],"split_conditions":[4.392102E1,3.89432E1,4.7578197E1,3.8689228E1,4.1813065E1,4.5343254E1,5.2936974E1,3.823208E1,-1.9192683E-3,4.039083E1,4.270196E1,4.4149593E1,4.6105167E1,5.1743313E1,5.7762413E1,2.941501E-3,3.840986E1,3.9044785E1,4.082258E1,4.227021E1,4.3463875E1,4.4124195E1,4.524167E1,4.5546432E1,4.747661E1,5.021949E1,5.176871E1,5.4460796E1,5.9514812E1,6.599408E-4,3.856224E1,3.901939E1,3.9984478E1,4.0746387E1,4.097496E1,4.2041637E1,-1.2458016E-2,4.3108315E1,4.3692448E1,7.636051E-3,1.4020639E-2,4.4987698E1,8.593517E-3,4.539405E1,4.5927387E1,4.6460724E1,-1.9374735E-3,4.8111534E1,5.126077E1,1.6456377E-2,5.1870296E1,5.3267136E1,5.5781445E1,5.8117973E1,-4.434427E-3,2.9174797E-3,1.9898487E-3,-6.7081796E-3,-3.5475397E-3,-1.2045474E-2,-1.4132477E-2,-8.445193E-3,9.374725E-4,-1.3875427E-2,-1.0397421E-2,-5.3825043E-3,-8.8947633E-4,-1.9650988E-3,-8.479804E-3,-1.5925433E-3,-7.233616E-4,3.973787E-3,-1.2906338E-3,-2.0778866E-3,2.757101E-3,-2.1685453E-3,-4.629224E-5,1.5529101E-3,3.7907534E-3,6.0280906E-3,1.09746205E-2,5.657315E-3,7.912559E-3,8.334324E-3,1.1400305E-2,5.696942E-3,2.946554E-3,9.578774E-3,3.5944798E-3,1.6739582E-4,-1.4162062E-3],"split_indices":[1,1,1,1,1,1,1,1,0,1,1,1,1,1,1,0,1,1,1,1,1,1,1,1,1,1,1,1,1,0,1,1,1,1,1,1,0,1,1,0,0,1,0,1,1,1,0,1,1,0,1,1,1,1,0,0,0,0,0,0,0,0,0,0,0,0,0,0,0,0,0,0,0,0,0,0,0,0,0,0,0,0,0,0,0,0,0,0,0,0,0],"split_type":[0,0,0,0,0,0,0,0,0,0,0,0,0,0,0,0,0,0,0,0,0,0,0,0,0,0,0,0,0,0,0,0,0,0,0,0,0,0,0,0,0,0,0,0,0,0,0,0,0,0,0,0,0,0,0,0,0,0,0,0,0,0,0,0,0,0,0,0,0,0,0,0,0,0,0,0,0,0,0,0,0,0,0,0,0,0,0,0,0,0,0],"sum_hessian":[6.608E3,2.94E3,3.668E3,9.63E2,1.977E3,1.438E3,2.23E3,9.31E2,3.2E1,1.718E3,2.59E2,3.52E2,1.086E3,1.539E3,6.91E2,8.59E2,7.2E1,1.235E3,4.83E2,1.22E2,1.37E2,2.6E1,3.26E2,5.14E2,5.72E2,1.117E3,4.22E2,5.21E2,1.7E2,2.2E1,5E1,4.1E1,1.194E3,1.76E2,3.07E2,7.7E1,4.5E1,8.1E1,5.6E1,1.7E1,9E0,2.81E2,4.5E1,8.2E1,4.32E2,5.44E2,2.8E1,6.76E2,4.41E2,1.9E1,4.03E2,2.98E2,2.23E2,1.36E2,3.4E1,2.8E1,2.2E1,2.7E1,1.4E1,8.71E2,3.23E2,1.57E2,1.9E1,4.9E1,2.58E2,5.1E1,2.6E1,5.8E1,2.3E1,2.6E1,3E1,2.25E2,5.6E1,2.6E1,5.6E1,3E2,1.32E2,2.37E2,3.07E2,1.56E2,5.2E2,2.63E2,1.78E2,5.4E1,3.49E2,1.01E2,1.97E2,9.5E1,1.28E2,2.7E1,1.09E2],"tree_param":{"num_deleted":"0","num_feature":"2","num_nodes":"91","size_leaf_vector":"1"}},{"base_weights":[-3.82271E-4,-4.206183E-2,1.0625935E-1,3.8786087E-2,-6.672366E-2,7.421107E-2,1.7023621E-1,2.7410682E-2,1.0539473E-1,-1.2536328E-1,-1.0564962E-2,5.1459026E-2,7.807265E-2,1.3025812E-2,1.8027063E-1,2.673998E-3,4.0039304E-3,6.995667E-3,1.12918854E-1,-1.4616479E-1,-8.963055E-2,-2.450568E-2,1.0174327E-2,8.777092E-3,3.4756374E-2,9.687859E-2,6.861253E-2,1.9991487E-2,1.7260954E-1,1.2515919E-2,9.4072E-3,-4.975872E-2,-1.5013197E-1,1.8537026E-2,-1.1205083E-1,-8.206564E-3,-3.527856E-2,2.7807006E-3,2.2227854E-2,-3.578587E-4,4.1533623E-2,8.871791E-2,1.01666E-1,6.4433366E-2,8.9602225E-2,1.5719703E-1,1.7797148E-1,-1.9819941E-3,-8.15183E-3,-1.5231012E-2,-1.3031982E-2,-4.4081504E-3,2.2194048E-2,-1.2012213E-2,-7.485167E-3,-6.307809E-3,-4.5113266E-4,-6.4699235E-3,-2.5556998E-3,7.1544264E-4,-3.2178469E-3,5.023982E-3,1.1801302E-3,9.212132E-3,3.2383767E-3,1.0518325E-2,7.348458E-3,1.18262125E-2,8.968516E-3,7.1013267E-3,5.450093E-3,9.722441E-3,6.2446687E-3,1.7460464E-2,1.3560103E-2,2.0815423E-2,1.6537195E-2],"categories":[],"categories_nodes":[],"categories_segments":[],"categories_sizes":[],"default_left":[0,0,0,0,0,0,0,0,0,0,0,0,0,0,0,0,0,0,0,0,0,0,0,0,0,0,0,0,0,0,0,0,0,0,0,0,0,0,0,0,0,0,0,0,0,0,0,0,0,0,0,0,0,0,0,0,0,0,0,0,0,0,0,0,0,0,0,0,0,0,0,0,0,0,0,0,0],"id":8,"left_children":[1,3,5,7,9,11,13,15,17,19,21,23,25,-1,27,-1,-1,-1,29,31,33,35,37,-1,39,41,43,-1,45,-1,-1,47,49,51,53,55,57,59,61,-1,63,65,67,69,71,73,75,-1,-1,-1,-1,-1,-1,-1,-1,-1,-1,-1,-1,-1,-1,-1,-1,-1,-1,-1,-1,-1,-1,-1,-1,-1,-1,-1,-1,-1,-1],"loss_changes":[2.9419996E1,9.491355E0,3.8010159E0,8.404316E-1,1.2008701E1,1.050148E-1,2.2523499E-1,6.992817E-3,3.529644E-2,1.3129368E0,5.391701E-1,1.0793984E-1,1.8175602E-1,0E0,3.968811E-2,0E0,0E0,0E0,1.8677235E-2,4.2317963E-1,1.6002493E0,1.9549161E-1,6.677765E-2,0E0,3.3143923E-2,4.7323704E-3,5.633211E-2,0E0,1.9388199E-3,0E0,0E0,4.212311E-2,2.6800156E-2,1.4617817E0,1.5494204E-1,8.994512E-2,1.9026244E-1,7.148247E-2,8.264656E-2,0E0,4.7006756E-2,2.6884079E-2,3.2143354E-2,3.4950018E-2,1.7731905E-2,1.4668465E-2,6.483364E-2,0E0,0E0,0E0,0E0,0E0,0E0,0E0,0E0,0E0,0E0,0E0,0E0,0E0,0E0,0E0,0E0,0E0,0E0,0E0,0E0,0E0,0E0,0E0,0E0,0E0,0E0,0E0,0E0,0E0,0E0],"parents":[2147483647,0,0,1,1,2,2,3,3,4,4,5,5,6,6,7,7,8,8,9,9,10,10,11,11,12,12,14,14,18,18,19,19,20,20,21,21,22,22,24,24,25,25,26,26,28,28,31,31,32,32,33,33,34,34,35,35,36,36,37,37,38,38,40,40,41,41,42,42,43,43,44,44,45,45,46,46],"right_children":[2,4,6,8,10,12,14,16,18,20,22,24,26,-1,28,-1,-1,-1,30,32,34,36,38,-1,40,42,44,-1,46,-1,-1,48,50,52,54,56,58,60,62,-1,64,66,68,70,72,74,76,-1,-1,-1,-1,-1,-1,-1,-1,-1,-1,-1,-1,-1,-1,-1,-1,-1,-1,-1,-1,-1,-1,-1,-1,-1,-1,-1,-1,-1,-1],"split_conditions":[6.8302185E1,5.4158062E1,7.442613E1,5.223073E1,6.2022816E1,6.9048256E1,7.790776E1,5.167118E1,5.2634846E1,5.7639694E1,6.488273E1,6.8644135E1,6.970106E1,1.3025812E-2,8.145156E1,2.673998E-3,4.0039304E-3,6.995667E-3,5.3598515E1,5.456218E1,5.8945305E1,6.3887978E1,6.69344E1,8.777092E-3,6.873739E1,6.945237E1,7.2187935E1,1.9991487E-2,8.440473E1,1.2515919E-2,9.4072E-3,5.4344578E1,5.7422092E1,5.8074898E1,6.115241E1,6.2271507E1,6.407449E1,6.6405945E1,6.7369606E1,-3.578587E-4,6.876848E1,6.9328026E1,6.954563E1,7.0913414E1,7.3866585E1,8.319238E1,8.599012E1,-1.9819941E-3,-8.15183E-3,-1.5231012E-2,-1.3031982E-2,-4.4081504E-3,2.2194048E-2,-1.2012213E-2,-7.485167E-3,-6.307809E-3,-4.5113266E-4,-6.4699235E-3,-2.5556998E-3,7.1544264E-4,-3.2178469E-3,5.023982E-3,1.1801302E-3,9.212132E-3,3.2383767E-3,1.0518325E-2,7.348458E-3,1.18262125E-2,8.968516E-3,7.1013267E-3,5.450093E-3,9.722441E-3,6.2446687E-3,1.7460464E-2,1.3560103E-2,2.0815423E-2,1.6537195E-2],"split_indices":[0,0,0,0,0,0,0,0,0,0,0,0,0,0,0,0,0,0,0,0,0,0,0,0,0,0,0,0,0,0,0,0,0,0,0,0,0,0,0,0,0,0,0,0,0,0,0,0,0,0,0,0,0,0,0,0,0,0,0,0,0,0,0,0,0,0,0,0,0,0,0,0,0,0,0,0,0],"split_type":[0,0,0,0,0,0,0,0,0,0,0,0,0,0,0,0,0,0,0,0,0,0,0,0,0,0,0,0,0,0,0,0,0,0,0,0,0,0,0,0,0,0,0,0,0,0,0,0,0,0,0,0,0,0,0,0,0,0,0,0,0,0,0,0,0,0,0,0,0,0,0,0,0,0,0,0,0],"sum_hessian":[6.617E3,4.758E3,1.859E3,1.112E3,3.646E3,1.24E3,6.19E2,9.51E2,1.61E2,1.783E3,1.863E3,1.82E2,1.058E3,1.27E2,4.92E2,9.06E2,4.5E1,3E1,1.31E2,1.125E3,6.58E2,1.114E3,7.49E2,5.6E1,1.26E2,3.51E2,7.07E2,1.31E2,3.61E2,7.6E1,5.5E1,4.5E1,1.08E3,1.13E2,5.45E2,4.44E2,6.7E2,4.65E2,2.84E2,1.9E1,1.07E2,1.37E2,2.14E2,5.93E2,1.14E2,1.01E2,2.6E2,2.4E1,2.1E1,9.67E2,1.13E2,8.7E1,2.6E1,4.46E2,9.9E1,2.7E1,4.17E2,1.65E2,5.05E2,4.14E2,5.1E1,7.6E1,2.08E2,1.5E1,9.2E1,6.3E1,7.4E1,8.6E1,1.28E2,3.53E2,2.4E2,8.7E1,2.7E1,5.2E1,4.9E1,7.2E1,1.88E2],"tree_param":{"num_deleted":"0","num_feature":"2","num_nodes":"77","size_leaf_vector":"1"}},{"base_weights":[1.9781445E-3,-3.5179023E-2,5.9034567E-2,2.2261936E-2,-5.4142147E-2,7.1792796E-2,1.3036704E-2,2.313228E-2,-6.4181857E-4,-8.996953E-2,3.2595668E-3,2.8688775E-2,8.341809E-2,2.6952913E-2,-3.946328E-2,2.3793601E-3,1.5213798E-2,-1.0081098E-1,-6.734478E-2,1.7943058E-2,-7.5484966E-3,2.1669285E-2,3.6073044E-2,9.877777E-2,7.216815E-2,3.1880535E-2,2.4140168E-3,-2.5656346E-2,-6.1597884E-2,5.7276635E-4,1.914812E-2,-4.6993576E-2,-1.0278504E-1,-4.429791E-2,-7.516826E-2,-7.4162497E-3,2.4628794E-2,-1.2226582E-2,8.351254E-3,6.3066245E-3,1.8412044E-2,4.5882277E-2,2.5236968E-2,6.815485E-2,1.0226464E-1,5.467622E-2,8.588109E-2,1.5178448E-2,4.9513806E-2,-8.2243915E-4,7.790185E-3,-4.8680436E-3,-1.45364525E-2,-4.8650433E-3,-6.8427646E-3,2.2033392E-3,1.5193467E-3,-5.7633505E-3,-3.1582539E-3,-9.784023E-3,-1.1641408E-2,-5.245357E-3,-1.815875E-4,-9.756072E-3,-6.059216E-3,2.3541679E-3,-4.628894E-3,2.164022E-3,4.5851422E-3,-9.5300796E-4,-3.4605865E-3,2.2488425E-3,1.2007946E-4,8.0899923E-4,2.4205968E-3,3.163806E-3,7.5094686E-3,1.5882325E-3,3.3258093E-3,8.077836E-3,3.954209E-3,1.243248E-2,9.624827E-3,7.17348E-4,5.708768E-3,9.304664E-3,5.4149013E-3,2.59968E-3,5.2765692E-5,6.9335788E-3,2.1840797E-3,1.7651616E-3,-1.629294E-4,-5.695142E-4,-2.4614017E-3],"categories":[],"categories_nodes":[],"categories_segments":[],"categories_sizes":[],"default_left":[0,0,0,0,0,0,0,0,0,0,0,0,0,0,0,0,0,0,0,0,0,0,0,0,0,0,0,0,0,0,0,0,0,0,0,0,0,0,0,0,0,0,0,0,0,0,0,0,0,0,0,0,0,0,0,0,0,0,0,0,0,0,0,0,0,0,0,0,0,0,0,0,0,0,0,0,0,0,0,0,0,0,0,0,0,0,0,0,0,0,0,0,0,0,0],"id":9,"left_children":[1,3,5,7,9,11,13,15,-1,17,19,21,23,25,27,-1,29,31,33,35,37,39,41,43,45,47,49,51,53,-1,55,57,59,61,63,65,67,69,71,-1,73,75,77,79,81,83,85,87,89,-1,91,-1,93,-1,-1,-1,-1,-1,-1,-1,-1,-1,-1,-1,-1,-1,-1,-1,-1,-1,-1,-1,-1,-1,-1,-1,-1,-1,-1,-1,-1,-1,-1,-1,-1,-1,-1,-1,-1,-1,-1,-1,-1,-1,-1],"loss_changes":[1.398172E1,4.351709E0,1.525465E0,2.491039E-2,6.1761227E0,1.0178394E0,4.1458365E-1,4.680872E-3,0E0,4.4674397E-1,1.8343407E-1,2.171421E-2,2.6986313E-1,5.4094523E-2,3.4787327E-2,0E0,2.7640834E-3,1.2775517E-1,1.05214834E-1,8.3260015E-2,4.9639445E-2,2.9177807E-2,2.1163702E-2,6.510544E-2,2.1813965E-1,1.0910156E-1,4.410804E-3,1.849426E-2,6.5022707E-4,0E0,2.813898E-4,5.7225153E-3,6.968403E-2,5.3607404E-2,1.4031363E-1,1.2504177E-1,2.361682E-2,3.0748278E-2,1.5338259E-2,0E0,1.23632625E-2,4.297991E-2,7.125333E-3,2.281174E-2,6.8198204E-2,4.6670914E-2,1.1297059E-1,3.0576289E-2,9.777027E-2,0E0,4.766126E-3,0E0,4.492961E-3,0E0,0E0,0E0,0E0,0E0,0E0,0E0,0E0,0E0,0E0,0E0,0E0,0E0,0E0,0E0,0E0,0E0,0E0,0E0,0E0,0E0,0E0,0E0,0E0,0E0,0E0,0E0,0E0,0E0,0E0,0E0,0E0,0E0,0E0,0E0,0E0,0E0,0E0,0E0,0E0,0E0,0E0],"parents":[2147483647,0,0,1,1,2,2,3,3,4,4,5,5,6,6,7,7,9,9,10,10,11,11,12,12,13,13,14,14,16,16,17,17,18,18,19,19,20,20,21,21,22,22,23,23,24,24,25,25,26,26,27,27,28,28,30,30,31,31,32,32,33,33,34,34,35,35,36,36,37,37,38,38,40,40,41,41,42,42,43,43,44,44,45,45,46,46,47,47,48,48,50,50,52,52],"right_children":[2,4,6,8,10,12,14,16,-1,18,20,22,24,26,28,-1,30,32,34,36,38,40,42,44,46,48,50,52,54,-1,56,58,60,62,64,66,68,70,72,-1,74,76,78,80,82,84,86,88,90,-1,92,-1,94,-1,-1,-1,-1,-1,-1,-1,-1,-1,-1,-1,-1,-1,-1,-1,-1,-1,-1,-1,-1,-1,-1,-1,-1,-1,-1,-1,-1,-1,-1,-1,-1,-1,-1,-1,-1,-1,-1,-1,-1,-1,-1],"split_conditions":[4.640993E1,3.89432E1,5.3267136E1,3.8689228E1,4.270196E1,4.7578197E1,5.8117973E1,3.823208E1,-6.4181857E-4,4.0467022E1,4.5343254E1,4.6790886E1,5.0346474E1,5.70259E1,5.9210045E1,2.3793601E-3,3.840986E1,3.9044785E1,4.082258E1,4.3692448E1,4.6105167E1,4.643533E1,4.7121048E1,4.780677E1,5.1743313E1,5.4460796E1,5.7330666E1,5.8448135E1,5.9514812E1,5.7276635E-4,3.856224E1,3.901939E1,4.003527E1,4.0746387E1,4.1305122E1,4.3108315E1,4.524167E1,4.6054375E1,4.6206757E1,6.3066245E-3,4.6460724E1,4.7019463E1,4.737502E1,4.770518E1,4.8213123E1,5.0422665E1,5.2936974E1,5.3521107E1,5.5781445E1,-8.2243915E-4,5.7762413E1,-4.8680436E-3,5.893068E1,-4.8650433E-3,-6.8427646E-3,2.2033392E-3,1.5193467E-3,-5.7633505E-3,-3.1582539E-3,-9.784023E-3,-1.1641408E-2,-5.245357E-3,-1.815875E-4,-9.756072E-3,-6.059216E-3,2.3541679E-3,-4.628894E-3,2.164022E-3,4.5851422E-3,-9.5300796E-4,-3.4605865E-3,2.2488425E-3,1.2007946E-4,8.0899923E-4,2.4205968E-3,3.163806E-3,7.5094686E-3,1.5882325E-3,3.3258093E-3,8.077836E-3,3.954209E-3,1.243248E-2,9.624827E-3,7.17348E-4,5.708768E-3,9.304664E-3,5.4149013E-3,2.59968E-3,5.2765692E-5,6.9335788E-3,2.1840797E-3,1.7651616E-3,-1.629294E-4,-5.695142E-4,-2.4614017E-3],"split_indices":[1,1,1,1,1,1,1,1,0,1,1,1,1,1,1,0,1,1,1,1,1,1,1,1,1,1,1,1,1,0,1,1,1,1,1,1,1,1,1,0,1,1,1,1,1,1,1,1,1,0,1,0,1,0,0,0,0,0,0,0,0,0,0,0,0,0,0,0,0,0,0,0,0,0,0,0,0,0,0,0,0,0,0,0,0,0,0,0,0,0,0,0,0,0,0],"split_type":[0,0,0,0,0,0,0,0,0,0,0,0,0,0,0,0,0,0,0,0,0,0,0,0,0,0,0,0,0,0,0,0,0,0,0,0,0,0,0,0,0,0,0,0,0,0,0,0,0,0,0,0,0,0,0,0,0,0,0,0,0,0,0,0,0,0,0,0,0,0,0,0,0,0,0,0,0,0,0,0,0,0,0,0,0,0,0,0,0,0,0,0,0,0,0],"sum_hessian":[6.593E3,3.993E3,2.6E3,9.91E2,3.002E3,2.035E3,5.65E2,9.62E2,2.9E1,1.848E3,1.154E3,4.33E2,1.602E3,4.47E2,1.18E2,8.86E2,7.6E1,1.247E3,6.01E2,4.89E2,6.65E2,2.24E2,2.09E2,6.74E2,9.28E2,3.72E2,7.5E1,7.4E1,4.4E1,2.3E1,5.3E1,4.5E1,1.202E3,1.54E2,4.47E2,1.02E2,3.87E2,5.14E2,1.51E2,1.5E1,2.09E2,1.08E2,1.01E2,7.1E1,6.03E2,4.1E2,5.18E2,1.92E2,1.8E2,2.5E1,5E1,2.3E1,5.1E1,1.8E1,2.6E1,2.8E1,2.5E1,2.5E1,2E1,8.88E2,3.14E2,1.29E2,2.5E1,1.74E2,2.73E2,5.7E1,4.5E1,3.41E2,4.6E1,4.6E2,5.4E1,5E1,1.01E2,7.6E1,1.33E2,7.4E1,3.4E1,4.8E1,5.3E1,4.8E1,2.3E1,1.25E2,4.78E2,2E1,3.9E2,4.21E2,9.7E1,1.1E2,8.2E1,1.04E2,7.6E1,2.4E1,2.6E1,2.8E1,2.3E1],"tree_param":{"num_deleted":"0","num_feature":"2","num_nodes":"95","size_leaf_vector":"1"}},{"base_weights":[1.3167846E-4,-3.9458234E-2,8.377307E-2,3.4607727E-2,-6.413505E-2,5.7728224E-2,1.545682E-1,2.2571329E-2,9.358125E-2,-1.0832489E-1,-1.579942E-2,3.3047583E-2,6.300059E-2,1.2943459E-2,1.630974E-1,2.1483635E-3,3.241193E-2,1.0348823E-1,2.7872818E-3,-1.2523092E-1,-8.270053E-2,-1.336E-2,-8.377158E-3,5.008255E-2,-4.618469E-4,6.131257E-2,1.00508966E-1,1.7563044E-1,1.4588076E-2,2.957102E-3,3.8992309E-3,6.4790337E-3,1.1208554E-2,-9.602796E-2,-1.2880158E-1,-5.986174E-3,-1.0950169E-1,-2.3085704E-2,1.3566973E-2,9.9449465E-3,4.190258E-2,1.165637E-2,-1.1581397E-2,7.057426E-2,5.0812434E-2,1.2729712E-2,7.7391653E-3,1.9876759E-1,1.6901748E-2,-6.730899E-3,-1.0341258E-2,-1.1758182E-2,-1.3044566E-2,-8.2667535E-3,9.406656E-3,-1.1923605E-2,-9.642526E-3,1.8839937E-4,-2.9083784E-3,4.4542807E-4,5.476018E-3,5.488972E-3,3.4756344E-3,6.086856E-4,1.4820474E-3,-5.7847E-4,-1.9034864E-3,5.662965E-3,7.774282E-3,2.960111E-3,5.5731474E-3,1.6471464E-2,2.221456E-2],"categories":[],"categories_nodes":[],"categories_segments":[],"categories_sizes":[],"default_left":[0,0,0,0,0,0,0,0,0,0,0,0,0,0,0,0,0,0,0,0,0,0,0,0,0,0,0,0,0,0,0,0,0,0,0,0,0,0,0,0,0,0,0,0,0,0,0,0,0,0,0,0,0,0,0,0,0,0,0,0,0,0,0,0,0,0,0,0,0,0,0,0,0],"id":10,"left_children":[1,3,5,7,9,11,13,15,17,19,21,23,25,-1,27,-1,29,31,-1,33,35,37,-1,39,41,43,45,47,-1,-1,-1,-1,-1,49,51,53,55,57,59,-1,61,63,65,67,69,-1,-1,71,-1,-1,-1,-1,-1,-1,-1,-1,-1,-1,-1,-1,-1,-1,-1,-1,-1,-1,-1,-1,-1,-1,-1,-1,-1],"loss_changes":[2.1676126E1,8.122744E0,3.8686905E0,7.865075E-1,7.1173906E0,1.9818115E-1,1.00008965E-1,9.193808E-3,1.1949837E-1,7.4385643E-1,2.6302037E-1,1.558603E-1,7.40571E-2,0E0,6.457329E-2,0E0,5.294457E-4,4.6967745E-2,0E0,9.680557E-2,1.428288E0,4.0335238E-1,0E0,6.892422E-2,1.2666665E-2,1.1457205E-1,2.2969604E-2,2.6669502E-3,0E0,0E0,0E0,0E0,0E0,1.8064737E-2,1.8167496E-3,1.3964407E0,5.405712E-2,1.6944492E-1,1.5328693E-1,0E0,1.2663275E-2,7.0280395E-4,2.0069587E-3,5.9873104E-2,5.81367E-2,0E0,0E0,8.254051E-4,0E0,0E0,0E0,0E0,0E0,0E0,0E0,0E0,0E0,0E0,0E0,0E0,0E0,0E0,0E0,0E0,0E0,0E0,0E0,0E0,0E0,0E0,0E0,0E0,0E0],"parents":[2147483647,0,0,1,1,2,2,3,3,4,4,5,5,6,6,7,7,8,8,9,9,10,10,11,11,12,12,14,14,16,16,17,17,19,19,20,20,21,21,23,23,24,24,25,25,26,26,27,27,33,33,34,34,35,35,36,36,37,37,38,38,40,40,41,41,42,42,43,43,44,44,47,47],"right_children":[2,4,6,8,10,12,14,16,18,20,22,24,26,-1,28,-1,30,32,-1,34,36,38,-1,40,42,44,46,48,-1,-1,-1,-1,-1,50,52,54,56,58,60,-1,62,64,66,68,70,-1,-1,72,-1,-1,-1,-1,-1,-1,-1,-1,-1,-1,-1,-1,-1,-1,-1,-1,-1,-1,-1,-1,-1,-1,-1,-1,-1],"split_conditions":[6.69344E1,5.4344578E1,7.5825E1,5.223073E1,6.2022816E1,6.8302185E1,8.00527E1,5.07386E1,5.4158062E1,5.7546436E1,6.6405945E1,6.780481E1,7.442613E1,1.2943459E-2,8.599012E1,2.1483635E-3,5.191987E1,5.2634846E1,2.7872818E-3,5.4748695E1,5.922508E1,6.488273E1,-8.377158E-3,6.7089836E1,6.808459E1,7.004301E1,7.5141106E1,8.145156E1,1.4588076E-2,2.957102E-3,3.8992309E-3,6.4790337E-3,1.1208554E-2,5.456218E1,5.487304E1,5.7795124E1,6.037526E1,6.3141914E1,6.603291E1,9.9449465E-3,6.7369606E1,6.792915E1,6.817784E1,6.9265854E1,7.0291695E1,1.2729712E-2,7.7391653E-3,8.079876E1,1.6901748E-2,-6.730899E-3,-1.0341258E-2,-1.1758182E-2,-1.3044566E-2,-8.2667535E-3,9.406656E-3,-1.1923605E-2,-9.642526E-3,1.8839937E-4,-2.9083784E-3,4.4542807E-4,5.476018E-3,5.488972E-3,3.4756344E-3,6.086856E-4,1.4820474E-3,-5.7847E-4,-1.9034864E-3,5.662965E-3,7.774282E-3,2.960111E-3,5.5731474E-3,1.6471464E-2,2.221456E-2],"split_indices":[0,0,0,0,0,0,0,0,0,0,0,0,0,0,0,0,0,0,0,0,0,0,0,0,0,0,0,0,0,0,0,0,0,0,0,0,0,0,0,0,0,0,0,0,0,0,0,0,0,0,0,0,0,0,0,0,0,0,0,0,0,0,0,0,0,0,0,0,0,0,0,0,0],"split_type":[0,0,0,0,0,0,0,0,0,0,0,0,0,0,0,0,0,0,0,0,0,0,0,0,0,0,0,0,0,0,0,0,0,0,0,0,0,0,0,0,0,0,0,0,0,0,0,0,0,0,0,0,0,0,0,0,0,0,0,0,0,0,0,0,0,0,0,0,0,0,0,0,0],"sum_hessian":[6.544E3,4.442E3,2.102E3,1.11E3,3.332E3,1.538E3,5.64E2,9.23E2,1.87E2,1.74E3,1.592E3,2.72E2,1.266E3,1.47E2,4.17E2,8.34E2,8.9E1,1.62E2,2.5E1,1.046E3,6.94E2,1.538E3,5.4E1,1.8E2,9.2E1,1.214E3,5.2E1,2.36E2,1.81E2,6.6E1,2.3E1,3.1E1,1.31E2,1.17E2,9.29E2,1.8E2,5.14E2,1.13E3,4.08E2,2.4E1,1.56E2,4.4E1,4.8E1,6.42E2,5.72E2,2.2E1,3E1,4.6E1,1.9E2,2.6E1,9.1E1,1.28E2,8.01E2,1.02E2,7.8E1,2.9E2,2.24E2,2.19E2,9.11E2,3.35E2,7.3E1,5.3E1,1.03E2,1.7E1,2.7E1,2.8E1,2E1,2.21E2,4.21E2,1.09E2,4.63E2,2.2E1,2.4E1],"tree_param":{"num_deleted":"0","num_feature":"2","num_nodes":"73","size_leaf_vector":"1"}},{"base_weights":[-5.0112943E-5,-4.156926E-2,3.1205514E-2,1.7186722E-2,-7.2919376E-2,3.6374897E-2,-2.9910294E-2,1.8533852E-2,-2.4781066E-3,-8.369414E-2,-4.65991E-2,9.099112E-3,5.1296234E-2,-4.6756496E-3,-5.085737E-2,1.9239212E-3,9.500524E-3,-3.8877465E-3,-8.504404E-2,-2.2910254E-2,-5.2787904E-2,2.256449E-2,-1.1484222E-3,5.724454E-2,1.9205477E-2,-3.6599383E-2,1.5381094E-2,-4.690929E-3,-6.577328E-3,2.5727166E-4,1.2558464E-2,-8.244914E-2,-9.7345404E-2,-3.9323214E-2,5.086668E-3,-7.537111E-2,-3.8022716E-2,2.5754768E-4,2.6597088E-2,-6.3862475E-3,9.772657E-3,3.9531775E-2,6.306673E-2,1.1607919E-2,3.235116E-2,-2.9251545E-3,-4.282216E-3,4.501321E-3,1.0749865E-3,1.594132E-3,8.3704334E-4,-8.74314E-3,-7.886425E-3,-9.474946E-3,-1.2200706E-2,-1.042949E-3,-6.093302E-3,-8.809949E-3,-6.2943357E-3,8.698123E-5,-4.390368E-3,4.6196016E-3,-2.5750217E-3,2.2654028E-3,4.1817077E-3,-1.8009637E-3,-4.9007445E-4,2.761074E-3,3.5928856E-4,8.337809E-3,3.7393016E-3,1.4205242E-2,5.8794785E-3,2.0546312E-3,-2.7036434E-4,5.0658616E-3,1.7408439E-3,-1.1140119E-3,1.2439919E-3],"categories":[],"categories_nodes":[],"categories_segments":[],"categories_sizes":[],"default_left":[0,0,0,0,0,0,0,0,0,0,0,0,0,0,0,0,0,0,0,0,0,0,0,0,0,0,0,0,0,0,0,0,0,0,0,0,0,0,0,0,0,0,0,0,0,0,0,0,0,0,0,0,0,0,0,0,0,0,0,0,0,0,0,0,0,0,0,0,0,0,0,0,0,0,0,0,0,0,0],"id":11,"left_children":[1,3,5,7,9,11,13,15,-1,17,19,21,23,25,27,-1,29,-1,31,33,35,37,39,41,43,45,47,-1,-1,-1,49,51,53,55,-1,57,59,61,63,65,67,69,71,73,75,-1,-1,-1,77,-1,-1,-1,-1,-1,-1,-1,-1,-1,-1,-1,-1,-1,-1,-1,-1,-1,-1,-1,-1,-1,-1,-1,-1,-1,-1,-1,-1,-1,-1],"loss_changes":[8.529828E0,5.201238E0,1.1858296E0,5.6034237E-2,5.1819706E-1,1.4069085E0,1.5463969E-1,5.8894753E-3,0E0,7.564354E-2,7.751775E-2,1.689219E-1,4.2553043E-1,8.636129E-2,6.3369274E-3,0E0,1.4718133E-3,0E0,3.2385826E-2,1.388317E-1,1.3884842E-1,4.757932E-2,3.9875492E-2,1.919012E-1,3.4680635E-2,1.1250228E-3,3.513699E-2,0E0,0E0,0E0,5.6077214E-4,1.1894226E-2,2.2044182E-3,5.7432547E-2,0E0,2.0871699E-2,5.927807E-2,9.915961E-2,2.593866E-2,8.044299E-3,2.4813972E-2,4.0863574E-2,4.6977568E-1,2.8710155E-2,3.4134194E-2,0E0,0E0,0E0,8.051542E-3,0E0,0E0,0E0,0E0,0E0,0E0,0E0,0E0,0E0,0E0,0E0,0E0,0E0,0E0,0E0,0E0,0E0,0E0,0E0,0E0,0E0,0E0,0E0,0E0,0E0,0E0,0E0,0E0,0E0,0E0],"parents":[2147483647,0,0,1,1,2,2,3,3,4,4,5,5,6,6,7,7,9,9,10,10,11,11,12,12,13,13,14,14,16,16,18,18,19,19,20,20,21,21,22,22,23,23,24,24,25,25,26,26,30,30,31,31,32,32,33,33,35,35,36,36,37,37,38,38,39,39,40,40,41,41,42,42,43,43,44,44,48,48],"right_children":[2,4,6,8,10,12,14,16,-1,18,20,22,24,26,28,-1,30,-1,32,34,36,38,40,42,44,46,48,-1,-1,-1,50,52,54,56,-1,58,60,62,64,66,68,70,72,74,76,-1,-1,-1,78,-1,-1,-1,-1,-1,-1,-1,-1,-1,-1,-1,-1,-1,-1,-1,-1,-1,-1,-1,-1,-1,-1,-1,-1,-1,-1,-1,-1,-1,-1],"split_conditions":[4.270196E1,3.89432E1,5.5781445E1,3.8689228E1,4.0543213E1,4.6460724E1,5.7762413E1,3.823208E1,-2.4781066E-3,3.9044785E1,4.082258E1,4.547024E1,5.3089355E1,5.667034E1,5.9514812E1,1.9239212E-3,3.840986E1,-3.8877465E-3,4.0187653E1,4.0746387E1,4.1305122E1,4.3463875E1,4.6105167E1,4.806074E1,5.402905E1,5.6213196E1,5.70259E1,-4.690929E-3,-6.577328E-3,2.5727166E-4,3.856224E1,3.960352E1,4.0492416E1,4.0670197E1,5.086668E-3,4.107655E1,4.1381313E1,4.2955933E1,4.524167E1,4.5597225E1,4.6206757E1,4.651152E1,4.8213123E1,5.3444916E1,5.4816357E1,-2.9251545E-3,-4.282216E-3,4.501321E-3,5.7330666E1,1.594132E-3,8.3704334E-4,-8.74314E-3,-7.886425E-3,-9.474946E-3,-1.2200706E-2,-1.042949E-3,-6.093302E-3,-8.809949E-3,-6.2943357E-3,8.698123E-5,-4.390368E-3,4.6196016E-3,-2.5750217E-3,2.2654028E-3,4.1817077E-3,-1.8009637E-3,-4.9007445E-4,2.761074E-3,3.5928856E-4,8.337809E-3,3.7393016E-3,1.4205242E-2,5.8794785E-3,2.0546312E-3,-2.7036434E-4,5.0658616E-3,1.7408439E-3,-1.1140119E-3,1.2439919E-3],"split_indices":[1,1,1,1,1,1,1,1,0,1,1,1,1,1,1,0,1,0,1,1,1,1,1,1,1,1,1,0,0,0,1,1,1,1,0,1,1,1,1,1,1,1,1,1,1,0,0,0,1,0,0,0,0,0,0,0,0,0,0,0,0,0,0,0,0,0,0,0,0,0,0,0,0,0,0,0,0,0,0],"split_type":[0,0,0,0,0,0,0,0,0,0,0,0,0,0,0,0,0,0,0,0,0,0,0,0,0,0,0,0,0,0,0,0,0,0,0,0,0,0,0,0,0,0,0,0,0,0,0,0,0,0,0,0,0,0,0,0,0,0,0,0,0,0,0,0,0,0,0,0,0,0,0,0,0,0,0,0,0,0,0],"sum_hessian":[6.571E3,2.822E3,3.749E3,9.82E2,1.84E3,3.457E3,2.92E2,9.52E2,3E1,1.304E3,5.36E2,1.223E3,2.234E3,1.33E2,1.59E2,8.82E2,7E1,3.9E1,1.265E3,1.12E2,4.24E2,5.28E2,6.95E2,1.884E3,3.5E2,5.1E1,8.2E1,1.29E2,3E1,2.2E1,4.8E1,1.051E3,2.14E2,9.2E1,2E1,1.66E2,2.58E2,8.1E1,4.47E2,4.7E2,2.25E2,4.68E2,1.416E3,2.23E2,1.27E2,2.6E1,2.5E1,2.6E1,5.6E1,2.5E1,2.3E1,4.3E2,6.21E2,1.98E2,1.6E1,4E1,5.2E1,7.9E1,8.7E1,3.4E1,2.24E2,2.9E1,5.2E1,3.57E2,9E1,5.2E1,4.18E2,5.7E1,1.68E2,2E1,4.48E2,7.1E1,1.345E3,1.37E2,8.6E1,5.6E1,7.1E1,2.7E1,2.9E1],"tree_param":{"num_deleted":"0","num_feature":"2","num_nodes":"79","size_leaf_vector":"1"}},{"base_weights":[3.658416E-5,-3.0094456E-2,7.857134E-2,3.1155635E-2,-4.9113393E-2,4.9537532E-2,1.4359136E-1,1.8466983E-2,9.517868E-2,-8.9142054E-2,-1.1999567E-2,3.5841927E-2,5.2299842E-2,1.1900746E-1,1.4705409E-1,1.7749587E-2,3.2117117E-2,1.02809735E-1,2.9961257E-3,-1.0422494E-1,-6.3636996E-2,-1.76268E-2,1.8280102E-2,8.3478205E-3,2.8595062E-2,7.6756E-2,4.5141447E-2,1.3789954E-2,7.809934E-3,1.523093E-2,1.244254E-2,1.7425282E-3,2.242115E-3,2.6454234E-3,3.7092348E-3,7.3461294E-2,1.1816248E-2,-4.50315E-3,-1.0544724E-1,2.7820496E-2,-8.815047E-2,1.3035499E-2,-2.243556E-2,2.5347298E-2,-1.8873727E-3,4.2423676E-4,3.6396276E-2,1.0613386E-2,7.3102616E-2,4.3141257E-2,7.260447E-2,6.235118E-3,8.75285E-3,-9.245018E-3,-1.0825175E-2,-5.423451E-3,8.3836345E-3,-9.930521E-3,-7.4175806E-3,-5.6451466E-4,1.9106958E-3,-2.0611936E-3,-7.3718117E-3,2.0926334E-3,5.8993767E-3,-7.5823226E-4,1.5007097E-3,2.6779622E-3,-3.2889105E-3,6.709579E-3,3.216682E-3,3.1688062E-3,8.158087E-3,4.749715E-3,3.8423499E-3,8.733539E-3,5.9747733E-3],"categories":[],"categories_nodes":[],"categories_segments":[],"categories_sizes":[],"default_left":[0,0,0,0,0,0,0,0,0,0,0,0,0,0,0,0,0,0,0,0,0,0,0,0,0,0,0,0,0,0,0,0,0,0,0,0,0,0,0,0,0,0,0,0,0,0,0,0,0,0,0,0,0,0,0,0,0,0,0,0,0,0,0,0,0,0,0,0,0,0,0,0,0,0,0,0,0],"id":12,"left_children":[1,3,5,7,9,11,13,15,17,19,21,23,25,27,29,31,33,35,-1,37,39,41,43,-1,45,47,49,-1,-1,-1,-1,-1,-1,-1,-1,51,-1,-1,53,55,57,59,61,63,65,67,69,-1,71,73,75,-1,-1,-1,-1,-1,-1,-1,-1,-1,-1,-1,-1,-1,-1,-1,-1,-1,-1,-1,-1,-1,-1,-1,-1,-1,-1],"loss_changes":[1.5634368E1,5.5639834E0,3.4512978E0,9.178406E-1,5.4125175E0,4.609561E-2,3.0597687E-2,8.693695E-3,8.998537E-2,6.6773033E-1,3.2270145E-1,7.217914E-2,1.8088078E-1,4.719305E-2,3.9438248E-2,9.743273E-4,3.1476095E-4,6.656635E-2,0E0,7.483864E-2,1.4686818E0,2.3561901E-1,4.2378493E-2,0E0,4.152043E-2,1.7678142E-2,4.1746497E-2,0E0,0E0,0E0,0E0,0E0,0E0,0E0,0E0,3.9197803E-3,0E0,0E0,2.9248238E-2,6.4344364E-1,7.306957E-2,2.4719737E-2,1.2753832E-1,3.1490445E-2,7.6184133E-3,3.7756167E-2,1.7058387E-2,0E0,7.25553E-2,1.3875246E-2,5.0090253E-3,0E0,0E0,0E0,0E0,0E0,0E0,0E0,0E0,0E0,0E0,0E0,0E0,0E0,0E0,0E0,0E0,0E0,0E0,0E0,0E0,0E0,0E0,0E0,0E0,0E0,0E0],"parents":[2147483647,0,0,1,1,2,2,3,3,4,4,5,5,6,6,7,7,8,8,9,9,10,10,11,11,12,12,13,13,14,14,15,15,16,16,17,17,19,19,20,20,21,21,22,22,24,24,25,25,26,26,35,35,38,38,39,39,40,40,41,41,42,42,43,43,44,44,45,45,46,46,48,48,49,49,50,50],"right_children":[2,4,6,8,10,12,14,16,18,20,22,24,26,28,30,32,34,36,-1,38,40,42,44,-1,46,48,50,-1,-1,-1,-1,-1,-1,-1,-1,52,-1,-1,54,56,58,60,62,64,66,68,70,-1,72,74,76,-1,-1,-1,-1,-1,-1,-1,-1,-1,-1,-1,-1,-1,-1,-1,-1,-1,-1,-1,-1,-1,-1,-1,-1,-1,-1],"split_conditions":[6.8302185E1,5.4344578E1,7.5825E1,5.223073E1,6.2022816E1,6.9265854E1,7.790776E1,5.167118E1,5.4158062E1,5.7639694E1,6.69344E1,6.845762E1,6.96078E1,7.722387E1,8.819723E1,5.07386E1,5.191987E1,5.294571E1,2.9961257E-3,5.456218E1,5.922508E1,6.3141914E1,6.792915E1,8.3478205E-3,6.873739E1,6.9328026E1,7.442613E1,1.3789954E-2,7.809934E-3,1.523093E-2,1.244254E-2,1.7425282E-3,2.242115E-3,2.6454234E-3,3.7092348E-3,5.2634846E1,1.1816248E-2,-4.50315E-3,5.4841953E1,5.7795124E1,6.037526E1,6.248911E1,6.6405945E1,6.780481E1,6.817784E1,6.8644135E1,6.876848E1,1.0613386E-2,6.942129E1,7.082015E1,7.5141106E1,6.235118E-3,8.75285E-3,-9.245018E-3,-1.0825175E-2,-5.423451E-3,8.3836345E-3,-9.930521E-3,-7.4175806E-3,-5.6451466E-4,1.9106958E-3,-2.0611936E-3,-7.3718117E-3,2.0926334E-3,5.8993767E-3,-7.5823226E-4,1.5007097E-3,2.6779622E-3,-3.2889105E-3,6.709579E-3,3.216682E-3,3.1688062E-3,8.158087E-3,4.749715E-3,3.8423499E-3,8.733539E-3,5.9747733E-3],"split_indices":[0,0,0,0,0,0,0,0,0,0,0,0,0,0,0,0,0,0,0,0,0,0,0,0,0,0,0,0,0,0,0,0,0,0,0,0,0,0,0,0,0,0,0,0,0,0,0,0,0,0,0,0,0,0,0,0,0,0,0,0,0,0,0,0,0,0,0,0,0,0,0,0,0,0,0,0,0],"split_type":[0,0,0,0,0,0,0,0,0,0,0,0,0,0,0,0,0,0,0,0,0,0,0,0,0,0,0,0,0,0,0,0,0,0,0,0,0,0,0,0,0,0,0,0,0,0,0,0,0,0,0,0,0,0,0,0,0,0,0,0,0,0,0,0,0,0,0,0,0,0,0,0,0,0,0,0,0],"sum_hessian":[6.605E3,4.774E3,1.831E3,1.131E3,3.643E3,1.267E3,5.64E2,9.45E2,1.86E2,1.752E3,1.891E3,2.15E2,1.052E3,7.4E1,4.9E2,9E2,4.5E1,1.66E2,2E1,1.099E3,6.53E2,1.595E3,2.96E2,2.7E1,1.88E2,2.36E2,8.16E2,4.9E1,2.5E1,3.93E2,9.7E1,8.46E2,5.4E1,2.4E1,2.1E1,5.9E1,1.07E2,2.3E1,1.076E3,1.38E2,5.15E2,2.16E2,1.379E3,2.19E2,7.7E1,4.1E1,1.47E2,2.3E1,2.13E2,7.63E2,5.3E1,3.6E1,2.3E1,1.97E2,8.79E2,5.6E1,8.2E1,2.83E2,2.32E2,5.3E1,1.63E2,1.333E3,4.6E1,1.95E2,2.4E1,5.8E1,1.9E1,2.3E1,1.8E1,1.6E1,1.31E2,3.7E1,1.76E2,3.92E2,3.71E2,2.2E1,3.1E1],"tree_param":{"num_deleted":"0","num_feature":"2","num_nodes":"77","size_leaf_vector":"1"}},{"base_weights":[2.0014217E-4,-3.218547E-2,2.6481744E-2,1.38459345E-2,-5.5524793E-2,3.214328E-2,-3.9373826E-2,1.4792707E-2,-1.7133218E-3,-6.546451E-2,-3.5757184E-2,1.3955972E-2,4.505166E-2,-1.2253202E-2,-6.1163247E-2,1.5552448E-3,5.549503E-3,-4.2485636E-2,-6.741898E-2,-4.2204164E-2,-8.150481E-3,2.9835122E-2,7.981675E-3,5.3095132E-2,1.247352E-2,-3.709989E-2,1.794984E-3,-5.2546218E-2,-6.891879E-3,1.3396963E-4,7.38577E-3,-3.1011164E-2,-4.906975E-3,-6.440709E-2,-7.737378E-2,-1.7431722E-3,-4.3959938E-2,7.51482E-3,-3.376315E-2,2.5925204E-2,5.9965975E-3,3.3153312E-3,1.6211852E-2,6.625038E-2,4.2068064E-2,1.899451E-2,4.518912E-3,-5.2157934E-3,-2.1762492E-3,1.5776092E-3,-5.863711E-3,-6.1432514E-2,-3.5687976E-3,1.1468347E-3,1.2973305E-4,-4.8596067E-3,2.709071E-4,-7.0089595E-3,-6.0356525E-3,-8.018502E-3,-5.4413425E-3,-4.2327265E-3,-6.718993E-3,-1.2803628E-3,4.1128406E-3,-4.931437E-3,-1.9841304E-3,3.1941298E-3,-5.720464E-4,1.4052778E-3,5.4667424E-5,3.1039452E-3,1.0992682E-3,4.755892E-3,7.3253573E-3,2.2334727E-3,6.235507E-3,1.7629616E-3,2.5946517E-3,-1.2204733E-3,1.908253E-3,-3.05554E-3,1.5731211E-3,-4.711598E-3,-7.338626E-3],"categories":[],"categories_nodes":[],"categories_segments":[],"categories_sizes":[],"default_left":[0,0,0,0,0,0,0,0,0,0,0,0,0,0,0,0,0,0,0,0,0,0,0,0,0,0,0,0,0,0,0,0,0,0,0,0,0,0,0,0,0,0,0,0,0,0,0,0,0,0,0,0,0,0,0,0,0,0,0,0,0,0,0,0,0,0,0,0,0,0,0,0,0,0,0,0,0,0,0,0,0,0,0,0,0],"id":13,"left_children":[1,3,5,7,9,11,13,15,-1,17,19,21,23,25,27,-1,29,31,33,35,37,39,41,43,45,47,49,51,-1,-1,53,55,-1,57,59,-1,61,63,65,67,-1,69,71,73,75,77,79,-1,-1,-1,81,83,-1,-1,-1,-1,-1,-1,-1,-1,-1,-1,-1,-1,-1,-1,-1,-1,-1,-1,-1,-1,-1,-1,-1,-1,-1,-1,-1,-1,-1,-1,-1,-1,-1],"loss_changes":[5.6201158E0,3.1786718E0,1.3602812E0,2.9466316E-2,3.8335848E-1,7.874894E-1,1.7003295E-1,6.704375E-3,0E0,5.5745125E-2,1.1694473E-1,1.32101E-1,5.137248E-1,4.5443207E-2,7.0713162E-3,0E0,5.698798E-4,6.4109564E-3,3.1025887E-2,2.2459984E-2,5.0808728E-2,4.333064E-2,3.892716E-2,2.2554302E-1,2.0144217E-2,9.719618E-3,9.086978E-3,9.792179E-3,0E0,0E0,1.277661E-3,2.4443295E-2,0E0,1.7129898E-2,1.3322711E-2,0E0,1.6043663E-2,5.448169E-2,9.413626E-3,6.472264E-2,0E0,1.9285988E-2,2.8060101E-2,9.024048E-2,3.424909E-1,1.5731603E-3,4.3342445E-2,0E0,0E0,0E0,2.9807499E-2,5.2702874E-3,0E0,0E0,0E0,0E0,0E0,0E0,0E0,0E0,0E0,0E0,0E0,0E0,0E0,0E0,0E0,0E0,0E0,0E0,0E0,0E0,0E0,0E0,0E0,0E0,0E0,0E0,0E0,0E0,0E0,0E0,0E0,0E0,0E0],"parents":[2147483647,0,0,1,1,2,2,3,3,4,4,5,5,6,6,7,7,9,9,10,10,11,11,12,12,13,13,14,14,16,16,17,17,18,18,19,19,20,20,21,21,22,22,23,23,24,24,25,25,26,26,27,27,30,30,31,31,33,33,34,34,36,36,37,37,38,38,39,39,41,41,42,42,43,43,44,44,45,45,46,46,50,50,51,51],"right_children":[2,4,6,8,10,12,14,16,-1,18,20,22,24,26,28,-1,30,32,34,36,38,40,42,44,46,48,50,52,-1,-1,54,56,-1,58,60,-1,62,64,66,68,-1,70,72,74,76,78,80,-1,-1,-1,82,84,-1,-1,-1,-1,-1,-1,-1,-1,-1,-1,-1,-1,-1,-1,-1,-1,-1,-1,-1,-1,-1,-1,-1,-1,-1,-1,-1,-1,-1,-1,-1,-1,-1],"split_conditions":[4.3692448E1,3.89432E1,5.5781445E1,3.8689228E1,4.0543213E1,4.737502E1,5.7762413E1,3.823208E1,-1.7133218E-3,3.9171772E1,4.247339E1,4.5343254E1,5.2936974E1,5.667034E1,5.893068E1,1.5552448E-3,3.840986E1,3.9044785E1,4.011146E1,4.0670197E1,4.3108315E1,4.524167E1,4.640993E1,5.021949E1,5.3521107E1,5.6213196E1,5.70259E1,5.8448135E1,-6.891879E-3,1.3396963E-4,3.856224E1,3.901939E1,-4.906975E-3,3.960352E1,4.0467022E1,-1.7431722E-3,4.227021E1,4.2955933E1,4.3463875E1,4.4987698E1,5.9965975E-3,4.5698814E1,4.651152E1,4.8111534E1,5.1743313E1,5.3444916E1,5.4460796E1,-5.2157934E-3,-2.1762492E-3,1.5776092E-3,5.7330666E1,5.8117973E1,-3.5687976E-3,1.1468347E-3,1.2973305E-4,-4.8596067E-3,2.709071E-4,-7.0089595E-3,-6.0356525E-3,-8.018502E-3,-5.4413425E-3,-4.2327265E-3,-6.718993E-3,-1.2803628E-3,4.1128406E-3,-4.931437E-3,-1.9841304E-3,3.1941298E-3,-5.720464E-4,1.4052778E-3,5.4667424E-5,3.1039452E-3,1.0992682E-3,4.755892E-3,7.3253573E-3,2.2334727E-3,6.235507E-3,1.7629616E-3,2.5946517E-3,-1.2204733E-3,1.908253E-3,-3.05554E-3,1.5731211E-3,-4.711598E-3,-7.338626E-3],"split_indices":[1,1,1,1,1,1,1,1,0,1,1,1,1,1,1,0,1,1,1,1,1,1,1,1,1,1,1,1,0,0,1,1,0,1,1,0,1,1,1,1,0,1,1,1,1,1,1,0,0,0,1,1,0,0,0,0,0,0,0,0,0,0,0,0,0,0,0,0,0,0,0,0,0,0,0,0,0,0,0,0,0,0,0,0,0],"split_type":[0,0,0,0,0,0,0,0,0,0,0,0,0,0,0,0,0,0,0,0,0,0,0,0,0,0,0,0,0,0,0,0,0,0,0,0,0,0,0,0,0,0,0,0,0,0,0,0,0,0,0,0,0,0,0,0,0,0,0,0,0,0,0,0,0,0,0,0,0,0,0,0,0,0,0,0,0,0,0,0,0,0,0,0,0],"sum_hessian":[6.601E3,2.957E3,3.644E3,9.95E2,1.962E3,3.356E3,2.88E2,9.66E2,2.9E1,1.304E3,6.58E2,1.394E3,1.962E3,1.29E2,1.59E2,8.92E2,7.4E1,1.04E2,1.2E3,5.33E2,1.25E2,3.8E2,1.014E3,1.573E3,3.89E2,4.6E1,8.3E1,7.9E1,8E1,2.3E1,5.1E1,4E1,6.4E1,9.27E2,2.73E2,3.6E1,4.97E2,7.8E1,4.7E1,3.38E2,4.2E1,6.48E2,3.66E2,7.15E2,8.58E2,2.13E2,1.76E2,2.2E1,2.4E1,2.9E1,5.4E1,5E1,2.9E1,3E1,2.1E1,2.6E1,1.4E1,3.79E2,5.48E2,2.41E2,3.2E1,4.67E2,3E1,4.9E1,2.9E1,2.1E1,2.6E1,2.84E2,5.4E1,1.32E2,5.16E2,9.4E1,2.72E2,1.97E2,5.18E2,4.36E2,4.22E2,1.81E2,3.2E1,8.2E1,9.4E1,2.5E1,2.9E1,2.5E1,2.5E1],"tree_param":{"num_deleted":"0","num_feature":"2","num_nodes":"85","size_leaf_vector":"1"}},{"base_weights":[7.398755E-4,-2.5478385E-2,6.771369E-2,2.7473964E-2,-4.20608E-2,3.940347E-2,1.3070922E-1,1.5217448E-2,8.912998E-2,-7.470781E-2,-1.1791295E-2,1.0941944E-2,3.7823807E-2,9.336214E-3,1.357353E-1,1.4148953E-3,2.3993338E-2,5.4911827E-3,9.6550256E-2,-8.8453904E-2,-5.311531E-2,-1.817576E-2,-2.3080453E-3,1.4978477E-2,4.1068017E-2,1.5614906E-1,1.2787358E-1,1.9301284E-3,2.550788E-3,1.01611756E-1,6.3303807E-3,-5.3136267E-2,-9.00261E-2,3.5809528E-3,-7.3986694E-2,-4.513757E-3,-2.5919514E-2,1.162029E-2,-1.1886373E-2,5.406205E-3,5.4701883E-3,5.3388357E-2,3.6427557E-2,1.4739821E-2,1.8783933E-2,1.3266176E-1,1.1008943E-2,1.0865118E-2,8.9069E-3,-4.3820865E-3,-6.215352E-3,-7.882866E-3,-9.2358375E-3,-5.9942906E-3,8.957427E-3,-8.003712E-3,-4.7350284E-3,-1.1728284E-3,3.0695782E-3,-3.9145495E-3,-2.0976465E-3,4.108825E-4,4.233762E-3,-9.203187E-3,-4.729475E-4,9.5947844E-4,-1.3955982E-3,6.3902736E-3,4.9925554E-3,3.4045894E-3,6.8415664E-3,1.1733567E-2,1.4076993E-2],"categories":[],"categories_nodes":[],"categories_segments":[],"categories_sizes":[],"default_left":[0,0,0,0,0,0,0,0,0,0,0,0,0,0,0,0,0,0,0,0,0,0,0,0,0,0,0,0,0,0,0,0,0,0,0,0,0,0,0,0,0,0,0,0,0,0,0,0,0,0,0,0,0,0,0,0,0,0,0,0,0,0,0,0,0,0,0,0,0,0,0,0,0],"id":14,"left_children":[1,3,5,7,9,11,13,15,17,19,21,-1,23,-1,25,-1,27,-1,29,31,33,35,37,39,41,43,45,-1,-1,47,-1,49,51,53,55,57,59,61,63,-1,65,67,69,-1,-1,71,-1,-1,-1,-1,-1,-1,-1,-1,-1,-1,-1,-1,-1,-1,-1,-1,-1,-1,-1,-1,-1,-1,-1,-1,-1,-1,-1],"loss_changes":[1.1683973E1,4.200123E0,3.3334064E0,8.6088365E-1,3.5981755E0,1.3886881E-1,9.619999E-2,8.596808E-3,4.268694E-2,5.153179E-1,1.1444956E-1,0E0,9.321451E-2,0E0,6.1719894E-2,0E0,2.3251027E-4,0E0,1.9482255E-2,5.4574966E-2,8.0966246E-1,1.19431585E-1,1.0179665E-1,5.879152E-2,6.1401725E-2,1.0305166E-2,1.7157555E-2,0E0,0E0,1.9772053E-3,0E0,1.3083518E-3,1.9410133E-2,1.0159554E0,7.679081E-2,1.0450828E-1,4.631546E-2,7.158376E-2,2.5882882E-1,0E0,1.0470042E-2,7.7688694E-3,5.922818E-2,0E0,0E0,1.9395828E-2,0E0,0E0,0E0,0E0,0E0,0E0,0E0,0E0,0E0,0E0,0E0,0E0,0E0,0E0,0E0,0E0,0E0,0E0,0E0,0E0,0E0,0E0,0E0,0E0,0E0,0E0,0E0],"parents":[2147483647,0,0,1,1,2,2,3,3,4,4,5,5,6,6,7,7,8,8,9,9,10,10,12,12,14,14,16,16,18,18,19,19,20,20,21,21,22,22,23,23,24,24,25,25,26,26,29,29,31,31,32,32,33,33,34,34,35,35,36,36,37,37,38,38,40,40,41,41,42,42,45,45],"right_children":[2,4,6,8,10,12,14,16,18,20,22,-1,24,-1,26,-1,28,-1,30,32,34,36,38,40,42,44,46,-1,-1,48,-1,50,52,54,56,58,60,62,64,-1,66,68,70,-1,-1,72,-1,-1,-1,-1,-1,-1,-1,-1,-1,-1,-1,-1,-1,-1,-1,-1,-1,-1,-1,-1,-1,-1,-1,-1,-1,-1,-1],"split_conditions":[6.8302185E1,5.4344578E1,7.5825E1,5.223073E1,6.2022816E1,6.845762E1,7.790776E1,5.07386E1,5.2634846E1,5.7546436E1,6.488273E1,1.0941944E-2,6.9048256E1,9.336214E-3,8.145156E1,1.4148953E-3,5.1173805E1,5.4911827E-3,5.4158062E1,5.462435E1,5.922508E1,6.385689E1,6.597074E1,6.8644135E1,6.96078E1,8.079876E1,8.89122E1,1.9301284E-3,2.550788E-3,5.3598515E1,6.3303807E-3,5.456218E1,5.4841953E1,5.7795124E1,6.115241E1,6.3670376E1,6.407449E1,6.5784225E1,6.603291E1,5.406205E-3,6.889282E1,6.9328026E1,7.442613E1,1.4739821E-2,1.8783933E-2,8.440473E1,1.1008943E-2,1.0865118E-2,8.9069E-3,-4.3820865E-3,-6.215352E-3,-7.882866E-3,-9.2358375E-3,-5.9942906E-3,8.957427E-3,-8.003712E-3,-4.7350284E-3,-1.1728284E-3,3.0695782E-3,-3.9145495E-3,-2.0976465E-3,4.108825E-4,4.233762E-3,-9.203187E-3,-4.729475E-4,9.5947844E-4,-1.3955982E-3,6.3902736E-3,4.9925554E-3,3.4045894E-3,6.8415664E-3,1.1733567E-2,1.4076993E-2],"split_indices":[0,0,0,0,0,0,0,0,0,0,0,0,0,0,0,0,0,0,0,0,0,0,0,0,0,0,0,0,0,0,0,0,0,0,0,0,0,0,0,0,0,0,0,0,0,0,0,0,0,0,0,0,0,0,0,0,0,0,0,0,0,0,0,0,0,0,0,0,0,0,0,0,0],"split_type":[0,0,0,0,0,0,0,0,0,0,0,0,0,0,0,0,0,0,0,0,0,0,0,0,0,0,0,0,0,0,0,0,0,0,0,0,0,0,0,0,0,0,0,0,0,0,0,0,0,0,0,0,0,0,0,0,0,0,0,0,0,0,0,0,0,0,0,0,0,0,0,0,0],"sum_hessian":[6.652E3,4.781E3,1.871E3,1.14E3,3.641E3,1.292E3,5.79E2,9.52E2,1.88E2,1.751E3,1.89E3,2.7E1,1.265E3,7.1E1,5.08E2,8.51E2,1.01E2,3.5E1,1.53E2,1.068E3,6.83E2,1.129E3,7.61E2,1.58E2,1.107E3,1.36E2,3.72E2,2.8E1,7.3E1,1.31E2,2.2E1,4.7E1,1.021E3,1.84E2,4.99E2,4.09E2,7.2E2,3.1E2,4.51E2,3E1,1.28E2,3E2,8.07E2,1.11E2,2.5E1,2.88E2,8.4E1,7.9E1,5.2E1,2.6E1,2.1E1,1.82E2,8.39E2,1.06E2,7.8E1,4.05E2,9.4E1,3.4E2,6.9E1,1.94E2,5.26E2,2.5E2,6E1,3.6E1,4.15E2,1.06E2,2.2E1,7E1,2.3E2,7.53E2,5.4E1,1.05E2,1.83E2],"tree_param":{"num_deleted":"0","num_feature":"2","num_nodes":"73","size_leaf_vector":"1"}},{"base_weights":[-1.2438723E-3,-2.8176416E-2,1.936218E-2,1.1224058E-2,-4.8620097E-2,2.6438167E-2,-2.9503323E-2,1.2091924E-2,-6.490469E-3,-5.4019336E-2,-3.185646E-2,7.973252E-3,3.92716E-2,-1.377207E-2,-6.297152E-2,1.2558854E-2,4.8875413E-3,-8.083971E-5,-1.1665352E-3,-5.2999597E-2,-7.69288E-2,1.3685868E-3,-3.4629114E-2,2.1303453E-2,6.4787123E-4,4.2392556E-2,1.3345328E-2,-7.349197E-3,-2.268049E-2,-5.4219063E-2,-7.7967155E-3,1.2631476E-3,9.4756624E-4,7.4376345E-5,7.7906856E-4,-5.3822376E-2,-2.4584555E-3,-1.0840385E-2,-4.979911E-3,-4.2770945E-2,-2.0380741E-2,1.6756345E-2,4.8539605E-2,-1.3630704E-2,4.474164E-3,3.7877806E-2,5.653669E-2,1.117558E-2,1.6863402E-2,-2.3065155E-2,-1.6003755E-4,-4.1577327E-3,-1.0937401E-2,-4.2533497E-3,-5.7434198E-2,-5.2338894E-3,-6.090378E-3,-3.6361422E-3,-1.000595E-2,-1.1044624E-4,-6.2380936E-3,6.538204E-4,2.1655092E-3,5.5851494E-3,3.8246717E-3,-8.3554705E-4,-1.8269398E-3,9.964874E-5,1.1170392E-3,4.7074193E-3,6.3436263E-4,6.770705E-3,4.6815905E-3,1.6197348E-3,-1.540781E-4,2.680605E-3,1.3144154E-3,-1.5348864E-3,-3.1641913E-3,1.7234728E-3,-1.2356886E-3,6.641503E-4,-1.8932108E-3,-6.9563403E-3,-5.197932E-3],"categories":[],"categories_nodes":[],"categories_segments":[],"categories_sizes":[],"default_left":[0,0,0,0,0,0,0,0,0,0,0,0,0,0,0,0,0,0,0,0,0,0,0,0,0,0,0,0,0,0,0,0,0,0,0,0,0,0,0,0,0,0,0,0,0,0,0,0,0,0,0,0,0,0,0,0,0,0,0,0,0,0,0,0,0,0,0,0,0,0,0,0,0,0,0,0,0,0,0,0,0,0,0,0,0],"id":15,"left_children":[1,3,5,7,9,11,13,15,17,19,21,23,25,27,29,31,33,-1,-1,35,37,-1,39,41,43,45,47,49,51,53,-1,-1,-1,-1,-1,55,-1,-1,-1,57,59,61,63,65,67,69,71,73,75,77,79,-1,81,-1,83,-1,-1,-1,-1,-1,-1,-1,-1,-1,-1,-1,-1,-1,-1,-1,-1,-1,-1,-1,-1,-1,-1,-1,-1,-1,-1,-1,-1,-1,-1],"loss_changes":[3.6361763E0,2.288139E0,1.2842844E0,1.5006483E-2,1.6753483E-1,7.681749E-1,2.4658614E-1,3.0536354E-3,1.3431563E-3,2.8932571E-2,5.8306992E-2,1.2995675E-1,1.5422416E-1,1.8200181E-2,1.5459955E-2,7.4878335E-5,6.9194485E-4,0E0,0E0,3.0379295E-2,4.412827E-2,0E0,4.924369E-2,5.7641834E-2,4.704623E-2,1.06862545E-1,1.3916418E-3,2.1237401E-2,2.9280819E-2,1.2390614E-3,0E0,0E0,0E0,0E0,0E0,1.0647535E-2,0E0,0E0,0E0,9.697235E-2,1.286587E-1,2.0181172E-2,2.9063225E-3,4.3009296E-3,1.5800953E-2,3.7583196E-1,4.1458607E-2,8.390432E-3,2.4950542E-3,3.418997E-3,2.7793936E-2,0E0,1.1930946E-2,0E0,1.2802482E-3,0E0,0E0,0E0,0E0,0E0,0E0,0E0,0E0,0E0,0E0,0E0,0E0,0E0,0E0,0E0,0E0,0E0,0E0,0E0,0E0,0E0,0E0,0E0,0E0,0E0,0E0,0E0,0E0,0E0,0E0],"parents":[2147483647,0,0,1,1,2,2,3,3,4,4,5,5,6,6,7,7,8,8,9,9,10,10,11,11,12,12,13,13,14,14,15,15,16,16,19,19,20,20,22,22,23,23,24,24,25,25,26,26,27,27,28,28,29,29,35,35,39,39,40,40,41,41,42,42,43,43,44,44,45,45,46,46,47,47,48,48,49,49,50,50,52,52,54,54],"right_children":[2,4,6,8,10,12,14,16,18,20,22,24,26,28,30,32,34,-1,-1,36,38,-1,40,42,44,46,48,50,52,54,-1,-1,-1,-1,-1,56,-1,-1,-1,58,60,62,64,66,68,70,72,74,76,78,80,-1,82,-1,84,-1,-1,-1,-1,-1,-1,-1,-1,-1,-1,-1,-1,-1,-1,-1,-1,-1,-1,-1,-1,-1,-1,-1,-1,-1,-1,-1,-1,-1,-1],"split_conditions":[4.270196E1,3.89432E1,5.3521107E1,3.856224E1,4.0746387E1,4.66893E1,5.7762413E1,3.823208E1,3.8689228E1,4.0670197E1,4.082258E1,4.5343254E1,5.2936974E1,5.5781445E1,5.9210045E1,3.797811E1,3.840986E1,-8.083971E-5,-1.1665352E-3,4.0543213E1,4.0720993E1,1.3685868E-3,4.168608E1,4.514008E1,4.5749607E1,5.1743313E1,5.3292534E1,5.402905E1,5.667034E1,5.8117973E1,-7.7967155E-3,1.2631476E-3,9.4756624E-4,7.4376345E-5,7.7906856E-4,4.0187653E1,-2.4584555E-3,-1.0840385E-2,-4.979911E-3,4.15337E1,4.227021E1,4.392102E1,4.531786E1,4.5546432E1,4.6282948E1,5.0727432E1,5.2124268E1,5.3267136E1,5.331793E1,5.372428E1,5.4816357E1,-4.1577327E-3,5.70259E1,-4.2533497E-3,5.8448135E1,-5.2338894E-3,-6.090378E-3,-3.6361422E-3,-1.000595E-2,-1.1044624E-4,-6.2380936E-3,6.538204E-4,2.1655092E-3,5.5851494E-3,3.8246717E-3,-8.3554705E-4,-1.8269398E-3,9.964874E-5,1.1170392E-3,4.7074193E-3,6.3436263E-4,6.770705E-3,4.6815905E-3,1.6197348E-3,-1.540781E-4,2.680605E-3,1.3144154E-3,-1.5348864E-3,-3.1641913E-3,1.7234728E-3,-1.2356886E-3,6.641503E-4,-1.8932108E-3,-6.9563403E-3,-5.197932E-3],"split_indices":[1,1,1,1,1,1,1,1,1,1,1,1,1,1,1,1,1,0,0,1,1,0,1,1,1,1,1,1,1,1,0,0,0,0,0,1,0,0,0,1,1,1,1,1,1,1,1,1,1,1,1,0,1,0,1,0,0,0,0,0,0,0,0,0,0,0,0,0,0,0,0,0,0,0,0,0,0,0,0,0,0,0,0,0,0],"split_type":[0,0,0,0,0,0,0,0,0,0,0,0,0,0,0,0,0,0,0,0,0,0,0,0,0,0,0,0,0,0,0,0,0,0,0,0,0,0,0,0,0,0,0,0,0,0,0,0,0,0,0,0,0,0,0,0,0,0,0,0,0,0,0,0,0,0,0,0,0,0,0,0,0,0,0,0,0,0,0,0,0,0,0,0,0],"sum_hessian":[6.55E3,2.839E3,3.711E3,9.7E2,1.869E3,3.242E3,4.69E2,9.25E2,4.5E1,1.412E3,4.57E2,1.33E3,1.912E3,3.2E2,1.49E2,8.68E2,5.7E1,2.2E1,2.3E1,1.355E3,5.7E1,2.6E1,4.31E2,4.71E2,8.59E2,1.706E3,2.06E2,1.87E2,1.33E2,9.7E1,5.2E1,8.45E2,2.3E1,2.4E1,3.3E1,1.316E3,3.9E1,2.5E1,3.2E1,2.73E2,1.58E2,4.05E2,6.6E1,1.81E2,6.78E2,1.296E3,4.1E2,1.3E2,7.6E1,5.8E1,1.29E2,5E1,8.3E1,2.4E1,7.3E1,1.095E3,2.21E2,2.47E2,2.6E1,1.09E2,4.9E1,1.32E2,2.73E2,3.6E1,3E1,8.6E1,9.5E1,4.47E2,2.31E2,1.003E3,2.93E2,1.88E2,2.22E2,9.3E1,3.7E1,1.9E1,5.7E1,3.2E1,2.6E1,5.3E1,7.6E1,2.6E1,5.7E1,1.9E1,5.4E1],"tree_param":{"num_deleted":"0","num_feature":"2","num_nodes":"85","size_leaf_vector":"1"}},{"base_weights":[-1.4657202E-3,-2.6217168E-2,1.6994823E-2,1.0428123E-2,-4.475149E-2,2.1648835E-2,-3.9544966E-2,1.1349028E-2,-5.9373393E-3,-5.00751E-2,-3.4244273E-2,1.2559467E-2,3.0489046E-2,-1.8220197E-2,-6.444738E-2,1.1490284E-2,6.7346025E-4,3.517208E-5,-1.1115915E-3,-4.7998127E-2,-7.011406E-3,-2.4445774E-2,-3.8284894E-2,2.0482363E-2,8.981571E-3,3.745814E-2,7.6564294E-3,-3.4208212E-2,-1.1012444E-2,-5.1548827E-2,-7.1932296E-3,1.13138575E-2,1.9646145E-3,-3.3061206E-2,-4.9817245E-2,-3.5635006E-2,-1.7289992E-2,-7.1026765E-2,-3.069299E-2,1.1512562E-2,2.7933046E-2,1.935886E-3,1.9161135E-2,8.518697E-2,3.4389358E-2,1.1075858E-2,-6.758132E-3,-2.9150662E-3,-3.9322656E-3,2.488394E-3,-2.1992128E-2,-7.665141E-3,-2.8996728E-3,1.1376209E-3,9.154232E-4,-2.1656293E-3,-3.8571449E-3,-5.633096E-3,-4.697192E-3,-2.702553E-3,-5.996202E-3,-2.2870922E-3,-1.0684401E-3,-3.704043E-3,-7.986852E-3,1.9719831E-3,-3.3226914E-3,3.4395386E-3,4.5134476E-4,3.7637174E-3,1.7902426E-3,-5.4614205E-4,4.273356E-4,1.0024824E-2,1.6181087E-3,9.702302E-3,6.403107E-3,2.9366647E-3,4.5186346E-3,7.9878344E-4,4.600635E-3,-6.217266E-3,1.2749587E-3,-1.6050807E-3,-3.462851E-3],"categories":[],"categories_nodes":[],"categories_segments":[],"categories_sizes":[],"default_left":[0,0,0,0,0,0,0,0,0,0,0,0,0,0,0,0,0,0,0,0,0,0,0,0,0,0,0,0,0,0,0,0,0,0,0,0,0,0,0,0,0,0,0,0,0,0,0,0,0,0,0,0,0,0,0,0,0,0,0,0,0,0,0,0,0,0,0,0,0,0,0,0,0,0,0,0,0,0,0,0,0,0,0,0,0],"id":16,"left_children":[1,3,5,7,9,11,13,15,17,19,21,23,25,27,29,31,-1,-1,-1,33,-1,35,37,39,41,43,45,47,49,51,-1,53,-1,55,57,59,61,63,65,67,69,71,73,75,77,79,81,-1,-1,-1,83,-1,-1,-1,-1,-1,-1,-1,-1,-1,-1,-1,-1,-1,-1,-1,-1,-1,-1,-1,-1,-1,-1,-1,-1,-1,-1,-1,-1,-1,-1,-1,-1,-1,-1],"loss_changes":[3.006556E0,1.9096859E0,9.926189E-1,1.4309511E-2,1.0271835E-1,2.7948284E-1,1.5123376E-1,5.0599873E-4,1.6648967E-3,4.811907E-2,2.404672E-2,4.8545063E-2,2.8056479E-1,1.7600358E-2,9.035826E-3,1.025267E-3,0E0,0E0,0E0,2.8894186E-2,0E0,1.4356524E-2,1.08434975E-1,3.5366267E-2,8.50252E-2,1.9509733E-1,2.0480732E-2,9.531528E-5,4.3507528E-2,2.7215391E-2,0E0,1.0453165E-5,0E0,7.0201755E-3,1.5887737E-2,1.3459377E-2,4.0320195E-3,2.1983027E-2,4.702571E-2,3.8923666E-2,2.7651668E-2,1.2161606E-2,1.15574926E-1,1.4070034E-2,6.7653775E-2,3.5767674E-2,8.727356E-2,0E0,0E0,0E0,5.750641E-3,0E0,0E0,0E0,0E0,0E0,0E0,0E0,0E0,0E0,0E0,0E0,0E0,0E0,0E0,0E0,0E0,0E0,0E0,0E0,0E0,0E0,0E0,0E0,0E0,0E0,0E0,0E0,0E0,0E0,0E0,0E0,0E0,0E0,0E0],"parents":[2147483647,0,0,1,1,2,2,3,3,4,4,5,5,6,6,7,7,8,8,9,9,10,10,11,11,12,12,13,13,14,14,15,15,19,19,21,21,22,22,23,23,24,24,25,25,26,26,27,27,28,28,29,29,31,31,33,33,34,34,35,35,36,36,37,37,38,38,39,39,40,40,41,41,42,42,43,43,44,44,45,45,46,46,50,50],"right_children":[2,4,6,8,10,12,14,16,18,20,22,24,26,28,30,32,-1,-1,-1,34,-1,36,38,40,42,44,46,48,50,52,-1,54,-1,56,58,60,62,64,66,68,70,72,74,76,78,80,82,-1,-1,-1,84,-1,-1,-1,-1,-1,-1,-1,-1,-1,-1,-1,-1,-1,-1,-1,-1,-1,-1,-1,-1,-1,-1,-1,-1,-1,-1,-1,-1,-1,-1,-1,-1,-1,-1],"split_conditions":[4.270196E1,3.89432E1,5.5781445E1,3.856224E1,4.039083E1,4.8111534E1,5.8117973E1,3.840986E1,3.8689228E1,4.023845E1,4.082258E1,4.547024E1,5.2936974E1,5.667034E1,5.893068E1,3.823208E1,6.7346025E-4,3.517208E-5,-1.1115915E-3,3.9247963E1,-7.011406E-3,4.0543213E1,4.107655E1,4.4327374E1,4.6460724E1,4.8289314E1,5.4816357E1,5.6213196E1,5.70259E1,5.8448135E1,-7.1932296E-3,3.797811E1,1.9646145E-3,3.9044785E1,3.9552727E1,4.0492416E1,4.0720993E1,4.0924168E1,4.1101948E1,4.3108315E1,4.4987698E1,4.5800404E1,4.651152E1,4.8213123E1,5.1743313E1,5.4460796E1,5.4994137E1,-2.9150662E-3,-3.9322656E-3,2.488394E-3,5.7762413E1,-7.665141E-3,-2.8996728E-3,1.1376209E-3,9.154232E-4,-2.1656293E-3,-3.8571449E-3,-5.633096E-3,-4.697192E-3,-2.702553E-3,-5.996202E-3,-2.2870922E-3,-1.0684401E-3,-3.704043E-3,-7.986852E-3,1.9719831E-3,-3.3226914E-3,3.4395386E-3,4.5134476E-4,3.7637174E-3,1.7902426E-3,-5.4614205E-4,4.273356E-4,1.0024824E-2,1.6181087E-3,9.702302E-3,6.403107E-3,2.9366647E-3,4.5186346E-3,7.9878344E-4,4.600635E-3,-6.217266E-3,1.2749587E-3,-1.6050807E-3,-3.462851E-3],"split_indices":[1,1,1,1,1,1,1,1,1,1,1,1,1,1,1,1,0,0,0,1,0,1,1,1,1,1,1,1,1,1,0,1,0,1,1,1,1,1,1,1,1,1,1,1,1,1,1,0,0,0,1,0,0,0,0,0,0,0,0,0,0,0,0,0,0,0,0,0,0,0,0,0,0,0,0,0,0,0,0,0,0,0,0,0,0],"split_type":[0,0,0,0,0,0,0,0,0,0,0,0,0,0,0,0,0,0,0,0,0,0,0,0,0,0,0,0,0,0,0,0,0,0,0,0,0,0,0,0,0,0,0,0,0,0,0,0,0,0,0,0,0,0,0,0,0,0,0,0,0,0,0,0,0,0,0,0,0,0,0,0,0,0,0,0,0,0,0,0,0,0,0,0,0],"sum_hessian":[6.578E3,2.81E3,3.768E3,9.44E2,1.866E3,3.482E3,2.86E2,8.94E2,5E1,1.236E3,6.3E2,1.718E3,1.764E3,1.55E2,1.31E2,8.66E2,2.8E1,2.3E1,2.7E1,1.123E3,1.13E2,1.86E2,4.44E2,5.33E2,1.185E3,1.351E3,4.13E2,4.7E1,1.08E2,5.1E1,8E1,8.5E2,1.6E1,1.24E2,9.99E2,7.1E1,1.15E2,8.2E1,3.62E2,2.43E2,2.9E2,7.01E2,4.84E2,8E1,1.271E3,3.34E2,7.9E1,2.7E1,2E1,2.5E1,8.3E1,2.3E1,2.8E1,8.22E2,2.8E1,4.2E1,8.2E1,2.98E2,7.01E2,5.4E1,1.7E1,6.1E1,5.4E1,1.8E1,6.4E1,1.7E1,3.45E2,5.6E1,1.87E2,1.46E2,1.44E2,1.68E2,5.33E2,1.6E1,4.68E2,4.9E1,3.1E1,8.7E2,4.01E2,3.08E2,2.6E1,2E1,5.9E1,5.8E1,2.5E1],"tree_param":{"num_deleted":"0","num_feature":"2","num_nodes":"85","size_leaf_vector":"1"}},{"base_weights":[-7.0284476E-4,-2.3255754E-2,1.6222592E-2,9.741474E-3,-4.012428E-2,2.1048004E-2,-3.050617E-2,1.030971E-2,-9.317644E-4,-4.4736445E-2,-2.9831242E-2,9.430788E-3,3.032689E-2,-1.574431E-2,-5.662452E-2,1.0410403E-2,8.424842E-3,-4.2503867E-2,-5.393866E-2,-2.5325906E-2,-8.253152E-2,6.214797E-3,7.350519E-3,4.614916E-2,2.03947E-2,-2.6731426E-2,-1.2771467E-2,-7.341731E-3,-5.256675E-3,1.0195358E-3,1.8629147E-3,7.219027E-4,9.86109E-4,-3.51378E-2,-4.428301E-2,-5.6713056E-2,-3.6734303E-3,-2.9172456E-2,5.080384E-3,-9.471046E-3,-6.410271E-3,8.650776E-3,-3.161992E-2,4.0780287E-2,7.110827E-2,2.5681993E-2,6.0386453E-3,-3.1559926E-3,-2.2327804E-3,2.1061255E-3,-1.8658474E-2,-4.4294028E-3,-2.897278E-3,-5.7048956E-3,-4.0927716E-3,-5.3007393E-3,-6.8115355E-3,5.4193973E-3,-3.181889E-3,7.7384576E-4,4.749608E-3,-4.687937E-3,-1.2148764E-3,4.961672E-3,3.2382403E-3,8.945639E-3,5.9210537E-3,9.102581E-4,3.5801784E-3,3.2183802E-4,3.704625E-3,-3.3888835E-3,-1.0481566E-3],"categories":[],"categories_nodes":[],"categories_segments":[],"categories_sizes":[],"default_left":[0,0,0,0,0,0,0,0,0,0,0,0,0,0,0,0,0,0,0,0,0,0,0,0,0,0,0,0,0,0,0,0,0,0,0,0,0,0,0,0,0,0,0,0,0,0,0,0,0,0,0,0,0,0,0,0,0,0,0,0,0,0,0,0,0,0,0,0,0,0,0,0,0],"id":17,"left_children":[1,3,5,7,9,11,13,15,-1,17,19,21,23,25,27,29,31,33,35,37,39,-1,41,43,45,47,49,-1,-1,-1,-1,-1,-1,51,53,55,-1,57,-1,-1,-1,59,61,63,65,67,69,-1,-1,-1,71,-1,-1,-1,-1,-1,-1,-1,-1,-1,-1,-1,-1,-1,-1,-1,-1,-1,-1,-1,-1,-1,-1],"loss_changes":[2.495667E0,1.5605816E0,8.428305E-1,1.0373808E-2,8.6728334E-2,3.6470723E-1,1.340529E-1,8.7291E-5,0E0,2.3983717E-2,1.3490832E-1,1.6459043E-1,2.9481483E-1,7.0077702E-3,4.7264397E-3,1.3494715E-3,1.8868828E-5,1.1994958E-2,9.658694E-3,1.5756413E-1,4.0287375E-3,0E0,7.369664E-2,9.425175E-2,8.77426E-2,2.946928E-4,3.6045022E-2,0E0,0E0,0E0,0E0,0E0,0E0,1.0345042E-2,3.3174157E-2,5.2625537E-3,0E0,1.1380112E-1,0E0,0E0,0E0,4.935378E-2,1.3395071E-2,4.284346E-2,2.24275E-2,1.4161605E-1,2.7252521E-2,0E0,0E0,0E0,1.8698994E-2,0E0,0E0,0E0,0E0,0E0,0E0,0E0,0E0,0E0,0E0,0E0,0E0,0E0,0E0,0E0,0E0,0E0,0E0,0E0,0E0,0E0,0E0],"parents":[2147483647,0,0,1,1,2,2,3,3,4,4,5,5,6,6,7,7,9,9,10,10,11,11,12,12,13,13,14,14,15,15,16,16,17,17,18,18,19,19,20,20,22,22,23,23,24,24,25,25,26,26,33,33,34,34,35,35,37,37,41,41,42,42,43,43,44,44,45,45,46,46,50,50],"right_children":[2,4,6,8,10,12,14,16,-1,18,20,22,24,26,28,30,32,34,36,38,40,-1,42,44,46,48,50,-1,-1,-1,-1,-1,-1,52,54,56,-1,58,-1,-1,-1,60,62,64,66,68,70,-1,-1,-1,72,-1,-1,-1,-1,-1,-1,-1,-1,-1,-1,-1,-1,-1,-1,-1,-1,-1,-1,-1,-1,-1,-1],"split_conditions":[4.270196E1,3.89432E1,5.4816357E1,3.8689228E1,4.0467022E1,4.737502E1,5.8117973E1,3.840986E1,-9.317644E-4,4.011146E1,4.227021E1,4.3108315E1,5.021949E1,5.5425884E1,5.8448135E1,3.823208E1,3.856224E1,3.9324154E1,4.039083E1,4.2041637E1,4.247339E1,6.214797E-3,4.7121048E1,4.9635357E1,5.2936974E1,5.4994137E1,5.5781445E1,-7.341731E-3,-5.256675E-3,1.0195358E-3,1.8629147E-3,7.219027E-4,9.86109E-4,3.9120975E1,3.9501934E1,4.0340034E1,-3.6734303E-3,4.0492416E1,5.080384E-3,-9.471046E-3,-6.410271E-3,4.7019463E1,4.7222637E1,4.8289314E1,4.986393E1,5.143855E1,5.4460796E1,-3.1559926E-3,-2.2327804E-3,2.1061255E-3,5.667034E1,-4.4294028E-3,-2.897278E-3,-5.7048956E-3,-4.0927716E-3,-5.3007393E-3,-6.8115355E-3,5.4193973E-3,-3.181889E-3,7.7384576E-4,4.749608E-3,-4.687937E-3,-1.2148764E-3,4.961672E-3,3.2382403E-3,8.945639E-3,5.9210537E-3,9.102581E-4,3.5801784E-3,3.2183802E-4,3.704625E-3,-3.3888835E-3,-1.0481566E-3],"split_indices":[1,1,1,1,1,1,1,1,0,1,1,1,1,1,1,1,1,1,1,1,1,0,1,1,1,1,1,0,0,0,0,0,0,1,1,1,0,1,0,0,0,1,1,1,1,1,1,0,0,0,1,0,0,0,0,0,0,0,0,0,0,0,0,0,0,0,0,0,0,0,0,0,0],"split_type":[0,0,0,0,0,0,0,0,0,0,0,0,0,0,0,0,0,0,0,0,0,0,0,0,0,0,0,0,0,0,0,0,0,0,0,0,0,0,0,0,0,0,0,0,0,0,0,0,0,0,0,0,0,0,0,0,0,0,0,0,0,0,0,0,0,0,0,0,0,0,0,0,0],"sum_hessian":[6.536E3,2.802E3,3.734E3,9.48E2,1.854E3,3.385E3,3.49E2,9.21E2,2.7E1,1.278E3,5.76E2,1.504E3,1.881E3,2.24E2,1.25E2,8.7E2,5.1E1,1.033E3,2.45E2,5.32E2,4.4E1,5.6E1,1.448E3,7.24E2,1.157E3,4.6E1,1.78E2,2.1E1,1.04E2,8.5E2,2E1,3.1E1,2E1,2.05E2,8.28E2,2.09E2,3.6E1,5.07E2,2.5E1,2.4E1,2E1,1.402E3,4.6E1,5.98E2,1.26E2,8.45E2,3.12E2,1.9E1,2.7E1,2.6E1,1.52E2,8E1,1.25E2,1.69E2,6.59E2,1.62E2,4.7E1,1.5E1,4.92E2,1.371E3,3.1E1,2.5E1,2.1E1,2.89E2,3.09E2,4.7E1,7.9E1,3.21E2,5.24E2,2.87E2,2.5E1,5.2E1,1E2],"tree_param":{"num_deleted":"0","num_feature":"2","num_nodes":"73","size_leaf_vector":"1"}},{"base_weights":[3.524384E-5,-1.107562E-2,1.0635924E-1,-2.0138621E-2,2.4892954E-2,5.338908E-2,1.2051237E-1,2.3884408E-2,-3.394685E-2,7.7224984E-3,2.3585731E-2,6.426214E-2,3.4120752E-4,1.2555103E-1,1.0603871E-2,1.0354419E-2,9.495269E-2,-6.39194E-2,-2.0285526E-2,-2.8623915E-3,2.7322954E-2,7.5372136E-3,6.010776E-3,1.1944936E-1,1.3585292E-1,9.350536E-3,1.9428318E-2,1.0161463E-1,4.658334E-3,-5.1105328E-2,-6.707747E-2,5.269099E-2,-2.3527907E-2,-9.934428E-3,9.501197E-3,4.2201675E-2,2.1714557E-2,1.2431797E-2,9.7892135E-2,1.4540206E-2,1.1768486E-2,9.24138E-4,1.2193633E-3,1.6407993E-3,2.9290041E-3,7.1774796E-3,1.1339071E-2,-2.6387484E-3,-5.4262932E-3,-7.095395E-3,-5.850506E-3,7.887288E-4,1.919684E-2,-5.034623E-3,-1.7571468E-3,-7.977314E-5,-2.4632502E-3,1.2778292E-3,3.7429886E-4,5.3536394E-3,3.8490437E-3,2.3179336E-3,-2.0134407E-3,6.792299E-3,1.2063823E-2],"categories":[],"categories_nodes":[],"categories_segments":[],"categories_sizes":[],"default_left":[0,0,0,0,0,0,0,0,0,0,0,0,0,0,0,0,0,0,0,0,0,0,0,0,0,0,0,0,0,0,0,0,0,0,0,0,0,0,0,0,0,0,0,0,0,0,0,0,0,0,0,0,0,0,0,0,0,0,0,0,0,0,0,0,0],"id":18,"left_children":[1,3,5,7,9,11,13,15,17,-1,19,21,-1,23,-1,25,27,29,31,33,35,-1,-1,37,39,41,43,45,-1,47,49,51,53,55,57,59,61,-1,63,-1,-1,-1,-1,-1,-1,-1,-1,-1,-1,-1,-1,-1,-1,-1,-1,-1,-1,-1,-1,-1,-1,-1,-1,-1,-1],"loss_changes":[7.8288136E0,1.9564006E0,4.6362352E-1,2.9143806E0,8.081734E-2,7.25967E-2,2.2712708E-2,1.0999949E0,1.4928403E0,0E0,1.1671239E-1,5.466342E-4,0E0,6.4644814E-3,0E0,8.5904375E-3,5.423522E-2,4.278612E-2,5.946771E-1,1.2947446E-2,8.536649E-2,0E0,0E0,1.2494087E-2,4.9214363E-3,1.5699863E-4,2.3490414E-3,4.8084855E-2,0E0,1.6519487E-2,2.6188374E-2,6.661812E-1,3.8281488E-1,1.2603783E-2,9.711613E-4,9.801924E-3,4.6625197E-2,0E0,2.4526536E-2,0E0,0E0,0E0,0E0,0E0,0E0,0E0,0E0,0E0,0E0,0E0,0E0,0E0,0E0,0E0,0E0,0E0,0E0,0E0,0E0,0E0,0E0,0E0,0E0,0E0,0E0],"parents":[2147483647,0,0,1,1,2,2,3,3,4,4,5,5,6,6,7,7,8,8,10,10,11,11,13,13,15,15,16,16,17,17,18,18,19,19,20,20,23,23,24,24,25,25,26,26,27,27,29,29,30,30,31,31,32,32,33,33,34,34,35,35,36,36,38,38],"right_children":[2,4,6,8,10,12,14,16,18,-1,20,22,-1,24,-1,26,28,30,32,34,36,-1,-1,38,40,42,44,46,-1,48,50,52,54,56,58,60,62,-1,64,-1,-1,-1,-1,-1,-1,-1,-1,-1,-1,-1,-1,-1,-1,-1,-1,-1,-1,-1,-1,-1,-1,-1,-1,-1,-1],"split_conditions":[7.442613E1,6.8302185E1,7.790776E1,5.4344578E1,6.845762E1,7.722387E1,8.769985E1,5.223073E1,5.7639694E1,7.7224984E-3,6.9048256E1,7.5141106E1,3.4120752E-4,8.440473E1,1.0603871E-2,5.07386E1,5.4158062E1,5.4841953E1,5.8945305E1,6.883065E1,6.96078E1,7.5372136E-3,6.010776E-3,8.319238E1,8.599012E1,5.0458828E1,5.191987E1,5.294571E1,4.658334E-3,5.456218E1,5.6924713E1,5.8074898E1,6.115241E1,6.876848E1,6.889282E1,6.9328026E1,7.3866585E1,1.2431797E-2,8.378301E1,1.4540206E-2,1.1768486E-2,9.24138E-4,1.2193633E-3,1.6407993E-3,2.9290041E-3,7.1774796E-3,1.1339071E-2,-2.6387484E-3,-5.4262932E-3,-7.095395E-3,-5.850506E-3,7.887288E-4,1.919684E-2,-5.034623E-3,-1.7571468E-3,-7.977314E-5,-2.4632502E-3,1.2778292E-3,3.7429886E-4,5.3536394E-3,3.8490437E-3,2.3179336E-3,-2.0134407E-3,6.792299E-3,1.2063823E-2],"split_indices":[0,0,0,0,0,0,0,0,0,0,0,0,0,0,0,0,0,0,0,0,0,0,0,0,0,0,0,0,0,0,0,0,0,0,0,0,0,0,0,0,0,0,0,0,0,0,0,0,0,0,0,0,0,0,0,0,0,0,0,0,0,0,0,0,0],"split_type":[0,0,0,0,0,0,0,0,0,0,0,0,0,0,0,0,0,0,0,0,0,0,0,0,0,0,0,0,0,0,0,0,0,0,0,0,0,0,0,0,0,0,0,0,0,0,0,0,0,0,0,0,0,0,0,0,0,0,0,0,0,0,0,0,0],"sum_hessian":[6.625E3,5.999E3,6.26E2,4.792E3,1.207E3,1.33E2,4.93E2,1.144E3,3.648E3,2.8E1,1.179E3,1.09E2,2.4E1,3.6E2,1.33E2,9.62E2,1.82E2,1.141E3,2.507E3,1.46E2,1.033E3,2.5E1,8.4E1,2.34E2,1.26E2,8.68E2,9.4E1,1.59E2,2.3E1,2.29E2,9.12E2,1.06E2,2.401E3,9.3E1,5.3E1,2.81E2,7.52E2,1.87E2,4.7E1,7.8E1,4.8E1,8.4E2,2.8E1,7.4E1,2E1,4.7E1,1.12E2,2.7E1,2.02E2,6.23E2,2.89E2,8.1E1,2.5E1,4.35E2,1.966E3,5.8E1,3.5E1,3.3E1,2E1,6.6E1,2.15E2,7.27E2,2.5E1,2.2E1,2.5E1],"tree_param":{"num_deleted":"0","num_feature":"2","num_nodes":"65","size_leaf_vector":"1"}},{"base_weights":[-4.1323726E-4,-1.8309707E-2,1.4167353E-2,7.442818E-3,-3.0362057E-2,1.957249E-2,-4.6748016E-2,8.19071E-3,-1.2920737E-3,-3.588114E-2,-1.1131298E-2,6.430616E-3,2.7246485E-2,-2.604561E-2,-6.477914E-2,8.284505E-4,5.727055E-4,-6.229205E-4,8.7483367E-4,-3.5330113E-2,-5.542074E-3,6.0768444E-3,-1.6665898E-2,2.285121E-2,-2.310462E-3,4.3225408E-2,1.5948148E-2,-4.0003057E-3,-2.2002256E-2,-5.8142883E-3,-7.0287944E-3,4.0314914E-4,-2.821883E-4,-2.2999307E-3,-3.5874393E-2,-1.4956313E-2,2.142812E-2,-3.999464E-2,-1.0900602E-2,4.948476E-2,1.860298E-2,-3.5073658E-4,-1.7409317E-2,2.4417652E-2,5.190621E-2,2.100515E-2,-8.169393E-4,-9.672123E-3,-3.3297427E-2,-3.6714163E-3,-2.7799958E-3,-6.2494545E-4,-2.7458554E-3,3.6396221E-3,7.150493E-4,-2.4433087E-3,-4.5212493E-3,5.373338E-3,-1.7605753E-3,6.665546E-3,4.3556415E-3,1.1017749E-3,3.3144199E-3,-2.140214E-4,3.0492328E-3,-1.4243149E-3,-2.1938824E-3,2.977674E-3,9.922994E-4,5.008821E-3,8.324913E-3,2.1205224E-4,3.013285E-3,-7.2028965E-4,1.2513088E-3,-2.5802928E-3,4.092618E-4,-4.356153E-3,-2.328362E-3],"categories":[],"categories_nodes":[],"categories_segments":[],"categories_sizes":[],"default_left":[0,0,0,0,0,0,0,0,0,0,0,0,0,0,0,0,0,0,0,0,0,0,0,0,0,0,0,0,0,0,0,0,0,0,0,0,0,0,0,0,0,0,0,0,0,0,0,0,0,0,0,0,0,0,0,0,0,0,0,0,0,0,0,0,0,0,0,0,0,0,0,0,0,0,0,0,0,0,0],"id":19,"left_children":[1,3,5,7,9,11,13,15,17,19,21,23,25,27,29,-1,-1,-1,31,33,-1,35,37,39,41,43,45,-1,47,-1,-1,-1,-1,-1,49,51,53,55,57,59,61,63,65,67,69,71,73,75,77,-1,-1,-1,-1,-1,-1,-1,-1,-1,-1,-1,-1,-1,-1,-1,-1,-1,-1,-1,-1,-1,-1,-1,-1,-1,-1,-1,-1,-1,-1],"loss_changes":[1.7122937E0,9.1460085E-1,1.1915045E0,6.1513707E-3,2.1261585E-1,3.3485067E-1,1.0843265E-1,1.5266612E-4,8.0782245E-4,1.482749E-2,4.2864125E-2,1.7602511E-1,3.778931E-1,6.964296E-3,1.6528368E-3,0E0,0E0,0E0,6.2984775E-4,9.3694925E-3,0E0,3.583792E-2,4.5293048E-2,4.7279432E-2,2.369517E-2,1.4044785E-1,1.04297906E-1,0E0,1.4997743E-2,0E0,0E0,0E0,0E0,0E0,8.831739E-3,4.9445964E-3,1.3417123E-2,4.335575E-3,1.1969231E-1,3.0007511E-3,4.0334955E-2,3.9252263E-2,1.0069087E-3,2.114372E-2,2.962017E-2,1.628288E-1,2.4435878E-2,1.2095563E-2,4.844345E-3,0E0,0E0,0E0,0E0,0E0,0E0,0E0,0E0,0E0,0E0,0E0,0E0,0E0,0E0,0E0,0E0,0E0,0E0,0E0,0E0,0E0,0E0,0E0,0E0,0E0,0E0,0E0,0E0,0E0,0E0],"parents":[2147483647,0,0,1,1,2,2,3,3,4,4,5,5,6,6,7,7,8,8,9,9,10,10,11,11,12,12,13,13,14,14,18,18,19,19,21,21,22,22,23,23,24,24,25,25,26,26,28,28,34,34,35,35,36,36,37,37,38,38,39,39,40,40,41,41,42,42,43,43,44,44,45,45,46,46,47,47,48,48],"right_children":[2,4,6,8,10,12,14,16,18,20,22,24,26,28,30,-1,-1,-1,32,34,-1,36,38,40,42,44,46,-1,48,-1,-1,-1,-1,-1,50,52,54,56,58,60,62,64,66,68,70,72,74,76,78,-1,-1,-1,-1,-1,-1,-1,-1,-1,-1,-1,-1,-1,-1,-1,-1,-1,-1,-1,-1,-1,-1,-1,-1,-1,-1,-1,-1,-1,-1],"split_conditions":[4.4124195E1,3.8689228E1,5.5781445E1,3.823208E1,4.117814E1,4.6790886E1,5.7762413E1,3.797811E1,3.840986E1,4.107655E1,4.1457508E1,4.5546432E1,5.021949E1,5.6213196E1,5.893068E1,8.284505E-4,5.727055E-4,-6.229205E-4,3.856224E1,3.9044785E1,-5.542074E-3,4.1305122E1,4.1813065E1,4.4225784E1,4.653692E1,4.780677E1,5.3267136E1,-4.0003057E-3,5.70259E1,-5.8142883E-3,-7.0287944E-3,4.0314914E-4,-2.821883E-4,-2.2999307E-3,4.0720993E1,4.1279728E1,4.1381313E1,4.15337E1,4.1889256E1,4.4149593E1,4.524167E1,4.6460724E1,4.66893E1,4.7578197E1,5.001631E1,5.143855E1,5.4460796E1,5.667034E1,5.7330666E1,-3.6714163E-3,-2.7799958E-3,-6.2494545E-4,-2.7458554E-3,3.6396221E-3,7.150493E-4,-2.4433087E-3,-4.5212493E-3,5.373338E-3,-1.7605753E-3,6.665546E-3,4.3556415E-3,1.1017749E-3,3.3144199E-3,-2.140214E-4,3.0492328E-3,-1.4243149E-3,-2.1938824E-3,2.977674E-3,9.922994E-4,5.008821E-3,8.324913E-3,2.1205224E-4,3.013285E-3,-7.2028965E-4,1.2513088E-3,-2.5802928E-3,4.092618E-4,-4.356153E-3,-2.328362E-3],"split_indices":[1,1,1,1,1,1,1,1,1,1,1,1,1,1,1,0,0,0,1,1,0,1,1,1,1,1,1,0,1,0,0,0,0,0,1,1,1,1,1,1,1,1,1,1,1,1,1,1,1,0,0,0,0,0,0,0,0,0,0,0,0,0,0,0,0,0,0,0,0,0,0,0,0,0,0,0,0,0,0],"split_type":[0,0,0,0,0,0,0,0,0,0,0,0,0,0,0,0,0,0,0,0,0,0,0,0,0,0,0,0,0,0,0,0,0,0,0,0,0,0,0,0,0,0,0,0,0,0,0,0,0,0,0,0,0,0,0,0,0,0,0,0,0,0,0,0,0,0,0,0,0,0,0,0,0,0,0,0,0,0,0],"sum_hessian":[6.56E3,2.945E3,3.615E3,9.39E2,2.006E3,3.321E3,2.94E2,8.65E2,7.4E1,1.558E3,4.48E2,1.225E3,2.096E3,1.38E2,1.56E2,8.31E2,3.4E1,2.2E1,5.2E1,1.518E3,4E1,1.09E2,3.39E2,4.25E2,8E2,8.67E2,1.229E3,2.9E1,1.09E2,7.6E1,8E1,2.8E1,2.4E1,6.6E1,1.452E3,4.6E1,6.3E1,6.6E1,2.73E2,5.7E1,3.68E2,7.09E2,9.1E1,2.75E2,5.92E2,9.44E2,2.85E2,5.3E1,5.6E1,1.312E3,1.4E2,2.8E1,1.8E1,3E1,3.3E1,1.8E1,4.8E1,2.5E1,2.48E2,1.2E1,4.5E1,2.43E2,1.25E2,6.71E2,3.8E1,5.6E1,3.5E1,2E2,7.5E1,5.62E2,3E1,3.08E2,6.36E2,1.93E2,9.2E1,2.4E1,2.9E1,2.6E1,3E1],"tree_param":{"num_deleted":"0","num_feature":"2","num_nodes":"79","size_leaf_vector":"1"}},{"base_weights":[-5.5965985E-4,-1.1144878E-2,1.027121E-1,-1.9460127E-2,2.2104548E-2,6.1134517E-2,1.1338765E-1,2.2409948E-2,-3.2407727E-2,3.0819852E-2,1.6593143E-2,9.586607E-3,5.4136686E-2,1.19257845E-1,1.0201192E-2,8.506662E-3,9.007174E-2,-5.5351805E-2,-2.2253023E-2,2.0725437E-2,3.889328E-2,1.4400131E-2,2.9288711E-2,5.908448E-2,4.767206E-3,1.14287496E-1,1.4107269E-2,7.895963E-3,2.1317832E-3,5.069532E-3,9.648543E-2,-3.4555394E-2,-5.6922834E-2,5.0955363E-2,-2.5447836E-2,4.3841726E-3,1.1862167E-2,6.3267775E-2,3.4466106E-2,1.6414847E-2,-2.357397E-3,7.4215555E-3,1.6103793E-2,4.6017007E-3,7.397016E-3,1.203769E-2,9.758077E-3,7.4913114E-4,1.2038396E-3,1.0476732E-2,5.058224E-3,-2.263723E-3,-4.009527E-3,-4.962675E-3,-5.818758E-3,-5.7185563E-4,2.0903695E-2,-4.2546275E-3,-2.0425164E-3,1.7393057E-3,-1.4183144E-3,2.8280306E-3,7.832813E-3,1.6286497E-3,3.750622E-3,9.952171E-4,2.1957806E-3,1.293917E-3,1.7455049E-3],"categories":[],"categories_nodes":[],"categories_segments":[],"categories_sizes":[],"default_left":[0,0,0,0,0,0,0,0,0,0,0,0,0,0,0,0,0,0,0,0,0,0,0,0,0,0,0,0,0,0,0,0,0,0,0,0,0,0,0,0,0,0,0,0,0,0,0,0,0,0,0,0,0,0,0,0,0,0,0,0,0,0,0,0,0,0,0,0,0],"id":20,"left_children":[1,3,5,7,9,11,13,15,17,19,21,-1,23,25,-1,27,29,31,33,35,37,39,41,43,-1,45,-1,47,-1,-1,49,51,53,55,57,-1,59,61,63,65,-1,-1,67,-1,-1,-1,-1,-1,-1,-1,-1,-1,-1,-1,-1,-1,-1,-1,-1,-1,-1,-1,-1,-1,-1,-1,-1,-1,-1],"loss_changes":[7.184261E0,1.6485109E0,2.6426935E-1,2.5860827E0,5.6792617E-2,2.5676876E-2,2.0221233E-2,1.0594265E0,8.4755206E-1,3.6763817E-2,1.9986078E-2,0E0,6.377697E-4,1.7923355E-2,0E0,7.1547255E-3,4.3597937E-2,3.452754E-2,5.9232926E-1,4.189132E-2,2.5336504E-2,4.8356876E-2,6.2187023E-2,7.6836646E-3,0E0,1.4805794E-2,0E0,1.4100522E-3,0E0,0E0,5.7047844E-2,4.4403896E-3,6.6814423E-3,9.508604E-1,2.0713222E-1,0E0,2.1998804E-2,1.780796E-2,1.1437595E-2,2.113159E-2,0E0,0E0,1.3335049E-4,0E0,0E0,0E0,0E0,0E0,0E0,0E0,0E0,0E0,0E0,0E0,0E0,0E0,0E0,0E0,0E0,0E0,0E0,0E0,0E0,0E0,0E0,0E0,0E0,0E0,0E0],"parents":[2147483647,0,0,1,1,2,2,3,3,4,4,5,5,6,6,7,7,8,8,9,9,10,10,12,12,13,13,15,15,16,16,17,17,18,18,19,19,20,20,21,21,22,22,23,23,25,25,27,27,30,30,31,31,32,32,33,33,34,34,36,36,37,37,38,38,39,39,42,42],"right_children":[2,4,6,8,10,12,14,16,18,20,22,-1,24,26,-1,28,30,32,34,36,38,40,42,44,-1,46,-1,48,-1,-1,50,52,54,56,58,-1,60,62,64,66,-1,-1,68,-1,-1,-1,-1,-1,-1,-1,-1,-1,-1,-1,-1,-1,-1,-1,-1,-1,-1,-1,-1,-1,-1,-1,-1,-1,-1],"split_conditions":[7.442613E1,6.8302185E1,7.790776E1,5.4344578E1,6.96078E1,7.5141106E1,8.599012E1,5.223073E1,5.7639694E1,6.920368E1,7.2187935E1,9.586607E-3,7.653998E1,8.4871025E1,1.0201192E-2,5.167118E1,5.2634846E1,5.471761E1,5.8945305E1,6.8644135E1,6.9328026E1,7.162839E1,7.274748E1,